net
{
 node_size = (76.0 36.0);
}

node POST_SURGICAL_SURVIVAL
{
 states = ("NO" "YES" );
 position = (574 3);
 excludepolicy = "include whole CPT";
 ismapvariable = "false";
 label = "Postsurgical  survival";
 diagnosistype = "AUXILIARY";
}
node AGE
{
 states = ("v10_19" "v20_29" "v30_39" "v40_44" "v45_49" "v50_54" "v55_59" "v60_64" "v65_69" "v70_79" "v80_89" "vGE90" );
 position = (42 214);
 excludepolicy = "include whole CPT";
 ismapvariable = "false";
 label = "Age";
 diagnosistype = "AUXILIARY";
}
node CLINICAL_STAGE
{
 states = ("I" "II1" "II2" "III" "IV" );
 position = (310 258);
 excludepolicy = "include whole CPT";
 ismapvariable = "false";
 label = "Clinical stage";
 diagnosistype = "AUXILIARY";
}
node HELICOBACTER_TREATMENT
{
 states = ("NO" "YES" );
 position = (165 -18);
 excludepolicy = "include whole CPT";
 ismapvariable = "false";
 label = "Helicobacter treatment";
 diagnosistype = "AUXILIARY";
}
node CLINICAL_PRESENTATION
{
 states = ("NONE" "HEMORRHAGE" "PERFORATION" "OBSTRUCTION" );
 position = (319 -11);
 excludepolicy = "include whole CPT";
 ismapvariable = "false";
 label = "Clinical presentation";
 diagnosistype = "AUXILIARY";
}
node EARLY_RESULT
{
 states = ("CR" "PR" "NC" "PD" );
 position = (546 199);
 excludepolicy = "include whole CPT";
 ismapvariable = "false";
 label = "Early result";
 diagnosistype = "AUXILIARY";
}
node SURGERY
{
 states = ("NONE" "CURATIVE" "PALLIATIVE" );
 position = (384 44);
 excludepolicy = "include whole CPT";
 ismapvariable = "false";
 label = "Surgery";
 diagnosistype = "AUXILIARY";
}
node THERAPY_ADJUSTMENT
{
 states = ("NO" "YES" );
 position = (615 363);
 excludepolicy = "include whole CPT";
 ismapvariable = "false";
 label = "Therapy adjustment";
 diagnosistype = "AUXILIARY";
}
node CT_RT_SCHEDULE
{
 states = ("NONE" "RT" "CT" "CT_NEXT_RT" );
 position = (179 373);
 excludepolicy = "include whole CPT";
 ismapvariable = "false";
 label = "CT-RT schedule";
 diagnosistype = "AUXILIARY";
}
node POST_CT_RT_SURVIVAL
{
 states = ("NO" "YES" );
 position = (646 257);
 excludepolicy = "include whole CPT";
 ismapvariable = "false";
 label = "Post-CT-RT survival";
 diagnosistype = "AUXILIARY";
}
node HISTOLOGICAL_CLASSIFICATION
{
 states = ("LOW_GRADE" "HIGH_GRADE" );
 position = (69 110);
 excludepolicy = "include whole CPT";
 ismapvariable = "false";
 label = "Histological classification";
 diagnosistype = "AUXILIARY";
}
node ERADICATION
{
 states = ("NO" "YES" );
 position = (252 50);
 excludepolicy = "include whole CPT";
 ismapvariable = "false";
 label = "Eradication";
 diagnosistype = "AUXILIARY";
}
node HEMORRHAGE
{
 states = ("NO" "YES" );
 position = (446 312);
 excludepolicy = "include whole CPT";
 ismapvariable = "false";
 label = "Hemorrhage";
 diagnosistype = "AUXILIARY";
}
node BULKY_DISEASE
{
 states = ("YES" "NO" );
 position = (188 208);
 excludepolicy = "include whole CPT";
 ismapvariable = "false";
 label = "Bulky disease";
 diagnosistype = "AUXILIARY";
}
node PERFORATION
{
 states = ("NO" "YES" );
 position = (443 379);
 excludepolicy = "include whole CPT";
 ismapvariable = "false";
 label = "Perforation";
 diagnosistype = "AUXILIARY";
}
node IMMEDIATE_SURVIVAL
{
 states = ("NO" "YES" );
 position = (661 174);
 excludepolicy = "include whole CPT";
 ismapvariable = "false";
 label = "Immediate survival";
 diagnosistype = "AUXILIARY";
}
node GENERAL_HEALTH_STATUS
{
 states = ("POOR" "AVERAGE" "GOOD" );
 position = (94 330);
 excludepolicy = "include whole CPT";
 ismapvariable = "false";
 label = "General health";
 diagnosistype = "AUXILIARY";
}
node FIVE_YEAR_RESULT
{
 states = ("ALIVE" "DEATH" );
 position = (668 49);
 excludepolicy = "include whole CPT";
 ismapvariable = "false";
 label = "Five-year result";
 diagnosistype = "AUXILIARY";
}
node HELICOBACTER_PYLORI
{
 states = ("ABSENT" "PRESENT" );
 position = (100 45);
 excludepolicy = "include whole CPT";
 ismapvariable = "false";
 label = "H. pylori";
 diagnosistype = "AUXILIARY";
}
node BM_DEPRESSION
{
 states = ("NO" "YES" );
 position = (442 442);
 excludepolicy = "include whole CPT";
 ismapvariable = "false";
 label = "BM depression";
 diagnosistype = "AUXILIARY";
}
potential ( POST_SURGICAL_SURVIVAL | CLINICAL_PRESENTATION SURGERY GENERAL_HEALTH_STATUS )
{
 data = (((( 0.0 1.0 )
  ( 0.0 1.0 )
  ( 0.0 1.0 ))
  (( 0.2 0.8 )
  ( 0.1 0.9 )
  ( 0.03 0.97 ))
  (( 0.4 0.6 )
  ( 0.2 0.8 )
  ( 0.1 0.9 )))
  ((( 0.2 0.8 )
  ( 0.1 0.9 )
  ( 0.05 0.95 ))
  (( 0.4 0.6 )
  ( 0.15 0.85 )
  ( 0.1 0.9 ))
  (( 0.6 0.4 )
  ( 0.3 0.7 )
  ( 0.2 0.8 )))
  ((( 0.9 0.1 )
  ( 0.8 0.2 )
  ( 0.7 0.3 ))
  (( 0.5 0.5 )
  ( 0.25 0.75 )
  ( 0.1 0.9 ))
  (( 0.6 0.4 )
  ( 0.35 0.65 )
  ( 0.3 0.7 )))
  ((( 0.3 0.7 )
  ( 0.1 0.9 )
  ( 0.02 0.98 ))
  (( 0.25 0.75 )
  ( 0.1 0.9 )
  ( 0.05 0.95 ))
  (( 0.4 0.6 )
  ( 0.2 0.8 )
  ( 0.12 0.88 ))));
}
potential ( AGE | )
{
 data = ( 0.00500000005 0.029999990299999897 0.06000000059999999 0.0700000007 0.0700000007 0.100000001 0.12000000119999998 0.15000000149999998 0.15000000149999998 0.200000002 0.0400000004 0.00500000005 );
}
potential ( CLINICAL_STAGE | AGE )
{
 data = (( 0.25 0.3 0.25 0.0 0.2 )
  ( 0.2500000100000004 0.3000000120000005 0.2500000100000004 0.0 0.19999996799999872 )
  ( 0.5 0.25 0.15000002 0.0 0.09999998 )
  ( 0.6000000180000006 0.2000000060000002 0.1000000030000001 0.0 0.09999997299999919 )
  ( 0.6000000180000006 0.2000000060000002 0.1000000030000001 0.0 0.09999997299999919 )
  ( 0.6000000180000006 0.2000000060000002 0.1000000030000001 0.0 0.09999997299999919 )
  ( 0.6 0.2 0.1 0.0 0.1 )
  ( 0.500000005 0.2500000025 0.1500000015 0.0 0.0999999909999999 )
  ( 0.42500000425000006 0.2750000027500001 0.1500000015 0.010000000100000002 0.1399999913999999 )
  ( 0.25000000000000006 0.35000000000000003 0.25000003000000004 0.010000000000000002 0.13999997000000003 )
  ( 0.24999998000000162 0.3499999720000022 0.2500000099999992 0.009999999200000064 0.1400000387999969 )
  ( 0.2 0.275 0.225 0.1 0.2 ));
}
potential ( HELICOBACTER_TREATMENT | )
{
 data = ( 0.5500000449999954 0.4499999550000045 );
}
potential ( CLINICAL_PRESENTATION | )
{
 data = ( 0.8499999915000002 0.11999999880000002 0.019999999800000005 0.010000009899999902 );
}
potential ( EARLY_RESULT | CT_RT_SCHEDULE SURGERY THERAPY_ADJUSTMENT CLINICAL_STAGE BULKY_DISEASE HISTOLOGICAL_CLASSIFICATION ERADICATION )
{
 data = (((((((( 0.0 0.0 0.1 0.9 )
  ( 0.7499999924999999 0.14999999849999998 0.0499999995 0.050000009499999894 ))
  (( 0.0 0.0 0.0 1.0 )
  ( 0.1 0.1 0.05 0.75 )))
  ((( 0.0 0.0 0.1 0.9 )
  ( 0.800000040000002 0.10000000500000025 0.050000002500000126 0.04999995249999762 ))
  (( 0.0 0.0 0.0 1.0 )
  ( 0.15 0.1 0.05 0.7 ))))
  (((( 0.0 0.0 0.1 0.9 )
  ( 0.1 0.15 0.1 0.65 ))
  (( 0.0 0.0 0.0 1.0 )
  ( 0.05 0.05 0.05 0.85 )))
  ((( 0.0 0.0 0.1 0.9 )
  ( 0.2 0.15 0.15 0.5 ))
  (( 0.0 0.0 0.0 1.0 )
  ( 0.1 0.05 0.05 0.8 ))))
  (((( 0.0 0.0 0.1 0.9 )
  ( 0.01 0.1 0.1 0.79 ))
  (( 0.0 0.0 0.0 1.0 )
  ( 0.01 0.01 0.05 0.93 )))
  ((( 0.0 0.0 0.1 0.9 )
  ( 0.02 0.1 0.15 0.73 ))
  (( 0.0 0.0 0.0 1.0 )
  ( 0.03 0.05 0.05 0.87 ))))
  (((( 0.0 0.0 0.1 0.9 )
  ( 0.0 0.1 0.1 0.8 ))
  (( 0.0 0.0 0.0 1.0 )
  ( 0.0 0.02 0.04 0.94 )))
  ((( 0.0 0.0 0.1 0.9 )
  ( 0.0 0.1 0.1 0.8 ))
  (( 0.0 0.0 0.0 1.0 )
  ( 0.0 0.02 0.04 0.94 ))))
  (((( 0.0 0.0 0.1 0.9 )
  ( 0.0 0.1 0.1 0.8 ))
  (( 0.0 0.0 0.0 1.0 )
  ( 0.0 0.02 0.04 0.94 )))
  ((( 0.0 0.0 0.1 0.9 )
  ( 0.0 0.1 0.1 0.8 ))
  (( 0.0 0.0 0.0 1.0 )
  ( 0.0 0.02 0.04 0.94 )))))
  ((((( 0.0 0.0 0.1 0.9 )
  ( 0.7499999924999999 0.14999999849999998 0.0499999995 0.050000009499999894 ))
  (( 0.0 0.0 0.0 1.0 )
  ( 0.1 0.1 0.05 0.75 )))
  ((( 0.0 0.0 0.1 0.9 )
  ( 0.800000040000002 0.10000000500000025 0.050000002500000126 0.04999995249999762 ))
  (( 0.0 0.0 0.0 1.0 )
  ( 0.15 0.1 0.05 0.7 ))))
  (((( 0.0 0.0 0.1 0.9 )
  ( 0.1 0.15 0.1 0.65 ))
  (( 0.0 0.0 0.0 1.0 )
  ( 0.05 0.05 0.05 0.85 )))
  ((( 0.0 0.0 0.1 0.9 )
  ( 0.2 0.15 0.15 0.5 ))
  (( 0.0 0.0 0.0 1.0 )
  ( 0.1 0.05 0.05 0.8 ))))
  (((( 0.0 0.0 0.1 0.9 )
  ( 0.01 0.1 0.1 0.79 ))
  (( 0.0 0.0 0.0 1.0 )
  ( 0.01 0.01 0.05 0.93 )))
  ((( 0.0 0.0 0.1 0.9 )
  ( 0.02 0.1 0.15 0.73 ))
  (( 0.0 0.0 0.0 1.0 )
  ( 0.03 0.05 0.05 0.87 ))))
  (((( 0.0 0.0 0.1 0.9 )
  ( 0.0 0.1 0.1 0.8 ))
  (( 0.0 0.0 0.0 1.0 )
  ( 0.0 0.02 0.04 0.94 )))
  ((( 0.0 0.0 0.1 0.9 )
  ( 0.0 0.1 0.1 0.8 ))
  (( 0.0 0.0 0.0 1.0 )
  ( 0.0 0.02 0.04 0.94 ))))
  (((( 0.0 0.0 0.1 0.9 )
  ( 0.0 0.1 0.1 0.8 ))
  (( 0.0 0.0 0.0 1.0 )
  ( 0.0 0.02 0.04 0.94 )))
  ((( 0.0 0.0 0.1 0.9 )
  ( 0.0 0.1 0.1 0.8 ))
  (( 0.0 0.0 0.0 1.0 )
  ( 0.0 0.02 0.04 0.94 ))))))
  (((((( 0.8999999909999999 0.0499999995 0.0 0.050000009499999894 )
  ( 0.8999999909999999 0.0499999995 0.0 0.050000009499999894 ))
  (( 0.6 0.2 0.0 0.2 )
  ( 0.6 0.2 0.0 0.2 )))
  ((( 0.8999999909999999 0.0499999995 0.0 0.050000009499999894 )
  ( 0.8999999909999999 0.0499999995 0.0 0.050000009499999894 ))
  (( 0.7499999850000002 0.14999999700000005 0.0 0.10000001799999962 )
  ( 0.7499999850000002 0.14999999700000005 0.0 0.10000001799999962 ))))
  (((( 0.6999999860000004 0.19999999600000012 0.0 0.10000001799999965 )
  ( 0.6999999860000004 0.19999999600000012 0.0 0.10000001799999965 ))
  (( 0.5500000275000013 0.15000000750000037 0.0 0.29999996499999826 )
  ( 0.5500000275000013 0.15000000750000037 0.0 0.29999996499999826 )))
  ((( 0.6999999860000004 0.19999999600000012 0.0 0.10000001799999965 )
  ( 0.6999999860000004 0.19999999600000012 0.0 0.10000001799999965 ))
  (( 0.6499999675000016 0.14999999250000035 0.0 0.200000039999998 )
  ( 0.6499999675000016 0.14999999250000035 0.0 0.200000039999998 ))))
  (((( 0.4 0.25 0.0 0.35 )
  ( 0.4 0.25 0.0 0.35 ))
  (( 0.35000000000000003 0.30000000000000004 0.0 0.35000000000000003 )
  ( 0.35000000000000003 0.30000000000000004 0.0 0.35000000000000003 )))
  ((( 0.5 0.25 0.0 0.25 )
  ( 0.5 0.25 0.0 0.25 ))
  (( 0.400000020000001 0.30000001500000073 0.0 0.29999996499999826 )
  ( 0.400000020000001 0.30000001500000073 0.0 0.29999996499999826 ))))
  (((( 0.0 0.25 0.0 0.75 )
  ( 0.0 0.25 0.0 0.75 ))
  (( 0.0 0.2 0.0 0.8 )
  ( 0.0 0.2 0.0 0.8 )))
  ((( 0.0 0.3 0.0 0.7 )
  ( 0.0 0.3 0.0 0.7 ))
  (( 0.0 0.4 0.0 0.6 )
  ( 0.0 0.4 0.0 0.6 ))))
  (((( 0.0 0.25 0.0 0.75 )
  ( 0.0 0.25 0.0 0.75 ))
  (( 0.0 0.2 0.0 0.8 )
  ( 0.0 0.2 0.0 0.8 )))
  ((( 0.0 0.3 0.0 0.7 )
  ( 0.0 0.3 0.0 0.7 ))
  (( 0.0 0.4 0.0 0.6 )
  ( 0.0 0.4 0.0 0.6 )))))
  ((((( 0.8999999909999999 0.0499999995 0.0 0.050000009499999894 )
  ( 0.8999999909999999 0.0499999995 0.0 0.050000009499999894 ))
  (( 0.6 0.2 0.0 0.2 )
  ( 0.6 0.2 0.0 0.2 )))
  ((( 0.8999999909999999 0.0499999995 0.0 0.050000009499999894 )
  ( 0.8999999909999999 0.0499999995 0.0 0.050000009499999894 ))
  (( 0.7499999850000002 0.14999999700000005 0.0 0.10000001799999962 )
  ( 0.7499999850000002 0.14999999700000005 0.0 0.10000001799999962 ))))
  (((( 0.6999999860000004 0.19999999600000012 0.0 0.10000001799999965 )
  ( 0.6999999860000004 0.19999999600000012 0.0 0.10000001799999965 ))
  (( 0.5500000275000013 0.15000000750000037 0.0 0.29999996499999826 )
  ( 0.5500000275000013 0.15000000750000037 0.0 0.29999996499999826 )))
  ((( 0.6999999860000004 0.19999999600000012 0.0 0.10000001799999965 )
  ( 0.6999999860000004 0.19999999600000012 0.0 0.10000001799999965 ))
  (( 0.6499999675000016 0.14999999250000035 0.0 0.200000039999998 )
  ( 0.6499999675000016 0.14999999250000035 0.0 0.200000039999998 ))))
  (((( 0.4 0.25 0.0 0.35 )
  ( 0.4 0.25 0.0 0.35 ))
  (( 0.35000000000000003 0.30000000000000004 0.0 0.35000000000000003 )
  ( 0.35000000000000003 0.30000000000000004 0.0 0.35000000000000003 )))
  ((( 0.5 0.25 0.0 0.25 )
  ( 0.5 0.25 0.0 0.25 ))
  (( 0.400000020000001 0.30000001500000073 0.0 0.29999996499999826 )
  ( 0.400000020000001 0.30000001500000073 0.0 0.29999996499999826 ))))
  (((( 0.0 0.25 0.0 0.75 )
  ( 0.0 0.25 0.0 0.75 ))
  (( 0.0 0.2 0.0 0.8 )
  ( 0.0 0.2 0.0 0.8 )))
  ((( 0.0 0.3 0.0 0.7 )
  ( 0.0 0.3 0.0 0.7 ))
  (( 0.0 0.4 0.0 0.6 )
  ( 0.0 0.4 0.0 0.6 ))))
  (((( 0.0 0.25 0.0 0.75 )
  ( 0.0 0.25 0.0 0.75 ))
  (( 0.0 0.2 0.0 0.8 )
  ( 0.0 0.2 0.0 0.8 )))
  ((( 0.0 0.3 0.0 0.7 )
  ( 0.0 0.3 0.0 0.7 ))
  (( 0.0 0.4 0.0 0.6 )
  ( 0.0 0.4 0.0 0.6 ))))))
  (((((( 0.0 0.0 0.0 1.0 )
  ( 0.0 0.0 0.0 1.0 ))
  (( 0.0 0.0 0.0 1.0 )
  ( 0.0 0.0 0.0 1.0 )))
  ((( 0.0 0.0 0.0 1.0 )
  ( 0.0 0.0 0.0 1.0 ))
  (( 0.0 0.0 0.0 1.0 )
  ( 0.0 0.0 0.0 1.0 ))))
  (((( 0.0 0.0 0.0 1.0 )
  ( 0.0 0.0 0.0 1.0 ))
  (( 0.0 0.0 0.0 1.0 )
  ( 0.0 0.0 0.0 1.0 )))
  ((( 0.0 0.0 0.0 1.0 )
  ( 0.0 0.0 0.0 1.0 ))
  (( 0.0 0.0 0.0 1.0 )
  ( 0.0 0.0 0.0 1.0 ))))
  (((( 0.0 0.0 0.0 1.0 )
  ( 0.0 0.0 0.0 1.0 ))
  (( 0.0 0.0 0.0 1.0 )
  ( 0.0 0.0 0.0 1.0 )))
  ((( 0.0 0.0 0.0 1.0 )
  ( 0.0 0.0 0.0 1.0 ))
  (( 0.0 0.0 0.0 1.0 )
  ( 0.0 0.0 0.0 1.0 ))))
  (((( 0.0 0.0 0.0 1.0 )
  ( 0.0 0.0 0.0 1.0 ))
  (( 0.0 0.0 0.0 1.0 )
  ( 0.0 0.0 0.0 1.0 )))
  ((( 0.0 0.0 0.0 1.0 )
  ( 0.0 0.0 0.0 1.0 ))
  (( 0.0 0.0 0.0 1.0 )
  ( 0.0 0.0 0.0 1.0 ))))
  (((( 0.0 0.0 0.0 1.0 )
  ( 0.0 0.0 0.0 1.0 ))
  (( 0.0 0.0 0.0 1.0 )
  ( 0.0 0.0 0.0 1.0 )))
  ((( 0.0 0.0 0.0 1.0 )
  ( 0.0 0.0 0.0 1.0 ))
  (( 0.0 0.0 0.0 1.0 )
  ( 0.0 0.0 0.0 1.0 )))))
  ((((( 0.0 0.0 0.0 1.0 )
  ( 0.0 0.0 0.0 1.0 ))
  (( 0.0 0.0 0.0 1.0 )
  ( 0.0 0.0 0.0 1.0 )))
  ((( 0.0 0.0 0.0 1.0 )
  ( 0.0 0.0 0.0 1.0 ))
  (( 0.0 0.0 0.0 1.0 )
  ( 0.0 0.0 0.0 1.0 ))))
  (((( 0.0 0.0 0.0 1.0 )
  ( 0.0 0.0 0.0 1.0 ))
  (( 0.0 0.0 0.0 1.0 )
  ( 0.0 0.0 0.0 1.0 )))
  ((( 0.0 0.0 0.0 1.0 )
  ( 0.0 0.0 0.0 1.0 ))
  (( 0.0 0.0 0.0 1.0 )
  ( 0.0 0.0 0.0 1.0 ))))
  (((( 0.0 0.0 0.0 1.0 )
  ( 0.0 0.0 0.0 1.0 ))
  (( 0.0 0.0 0.0 1.0 )
  ( 0.0 0.0 0.0 1.0 )))
  ((( 0.0 0.0 0.0 1.0 )
  ( 0.0 0.0 0.0 1.0 ))
  (( 0.0 0.0 0.0 1.0 )
  ( 0.0 0.0 0.0 1.0 ))))
  (((( 0.0 0.0 0.0 1.0 )
  ( 0.0 0.0 0.0 1.0 ))
  (( 0.0 0.0 0.0 1.0 )
  ( 0.0 0.0 0.0 1.0 )))
  ((( 0.0 0.0 0.0 1.0 )
  ( 0.0 0.0 0.0 1.0 ))
  (( 0.0 0.0 0.0 1.0 )
  ( 0.0 0.0 0.0 1.0 ))))
  (((( 0.0 0.0 0.0 1.0 )
  ( 0.0 0.0 0.0 1.0 ))
  (( 0.0 0.0 0.0 1.0 )
  ( 0.0 0.0 0.0 1.0 )))
  ((( 0.0 0.0 0.0 1.0 )
  ( 0.0 0.0 0.0 1.0 ))
  (( 0.0 0.0 0.0 1.0 )
  ( 0.0 0.0 0.0 1.0 )))))))
  ((((((( 0.8999999370000045 0.0199999986000001 0.029999997900000144 0.050000066499995346 )
  ( 0.9499999525000024 0.019999999000000053 0.019999999000000053 0.010000049499997526 ))
  (( 0.6000000540000049 0.10000000900000083 0.10000000900000083 0.19999992799999355 )
  ( 0.6000000540000049 0.10000000900000083 0.10000000900000083 0.19999992799999355 )))
  ((( 0.9499999525000024 0.019999999000000053 0.019999999000000053 0.010000049499997526 )
  ( 0.99 0.01 0.0 0.0 ))
  (( 0.850000042500002 0.050000002500000126 0.050000002500000126 0.04999995249999762 )
  ( 0.850000042500002 0.050000002500000126 0.050000002500000126 0.04999995249999762 ))))
  (((( 0.7500000225000008 0.1000000030000001 0.05000000150000005 0.09999997299999919 )
  ( 0.800000040000002 0.10000000500000025 0.050000002500000126 0.04999995249999762 ))
  (( 0.4999999750000012 0.14999999250000035 0.14999999250000035 0.200000039999998 )
  ( 0.4999999750000012 0.14999999250000035 0.14999999250000035 0.200000039999998 )))
  ((( 0.800000040000002 0.10000000500000025 0.050000002500000126 0.04999995249999762 )
  ( 0.8999999640000013 0.04999999800000007 0.029999998800000042 0.020000039199998428 ))
  (( 0.7000000210000006 0.1000000030000001 0.1000000030000001 0.09999997299999919 )
  ( 0.7000000210000006 0.1000000030000001 0.1000000030000001 0.09999997299999919 ))))
  (((( 0.4 0.2 0.2 0.2 )
  ( 0.44999998200000063 0.1999999920000003 0.1999999920000003 0.15000003399999862 ))
  (( 0.3 0.2 0.1 0.4 )
  ( 0.3 0.2 0.1 0.4 )))
  ((( 0.49999999000000017 0.24999999500000009 0.14999999700000005 0.10000001799999962 )
  ( 0.5500000110000002 0.15000000300000005 0.15000000300000005 0.14999998299999964 ))
  (( 0.4 0.2 0.2 0.2 )
  ( 0.4 0.2 0.2 0.2 ))))
  (((( 0.0 0.15 0.2 0.65 )
  ( 0.0 0.35 0.4 0.25 ))
  (( 0.0 0.15 0.15 0.7 )
  ( 0.0 0.15 0.15 0.7 )))
  ((( 0.0 0.2 0.2 0.6 )
  ( 0.0 0.49999999000000017 0.39999999200000014 0.10000001799999962 ))
  (( 0.0 0.3 0.2 0.5 )
  ( 0.0 0.3 0.2 0.5 ))))
  (((( 0.0 0.15 0.2 0.65 )
  ( 0.0 0.35 0.4 0.25 ))
  (( 0.0 0.15 0.15 0.7 )
  ( 0.0 0.15 0.15 0.7 )))
  ((( 0.0 0.2 0.2 0.6 )
  ( 0.0 0.49999999000000017 0.39999999200000014 0.10000001799999962 ))
  (( 0.0 0.3 0.2 0.5 )
  ( 0.0 0.3 0.2 0.5 )))))
  ((((( 0.8999999370000045 0.0199999986000001 0.029999997900000144 0.050000066499995346 )
  ( 0.9499999525000024 0.019999999000000053 0.019999999000000053 0.010000049499997526 ))
  (( 0.6000000540000049 0.10000000900000083 0.10000000900000083 0.19999992799999355 )
  ( 0.6000000540000049 0.10000000900000083 0.10000000900000083 0.19999992799999355 )))
  ((( 0.9499999525000024 0.019999999000000053 0.019999999000000053 0.010000049499997526 )
  ( 0.99 0.01 0.0 0.0 ))
  (( 0.850000042500002 0.050000002500000126 0.050000002500000126 0.04999995249999762 )
  ( 0.850000042500002 0.050000002500000126 0.050000002500000126 0.04999995249999762 ))))
  (((( 0.7500000225000008 0.1000000030000001 0.05000000150000005 0.09999997299999919 )
  ( 0.800000040000002 0.10000000500000025 0.050000002500000126 0.04999995249999762 ))
  (( 0.4999999750000012 0.14999999250000035 0.14999999250000035 0.200000039999998 )
  ( 0.4999999750000012 0.14999999250000035 0.14999999250000035 0.200000039999998 )))
  ((( 0.800000040000002 0.10000000500000025 0.050000002500000126 0.04999995249999762 )
  ( 0.8999999640000013 0.04999999800000007 0.029999998800000042 0.020000039199998428 ))
  (( 0.7000000210000006 0.1000000030000001 0.1000000030000001 0.09999997299999919 )
  ( 0.7000000210000006 0.1000000030000001 0.1000000030000001 0.09999997299999919 ))))
  (((( 0.4 0.2 0.2 0.2 )
  ( 0.44999998200000063 0.1999999920000003 0.1999999920000003 0.15000003399999862 ))
  (( 0.3 0.2 0.1 0.4 )
  ( 0.3 0.2 0.1 0.4 )))
  ((( 0.49999999000000017 0.24999999500000009 0.14999999700000005 0.10000001799999962 )
  ( 0.5500000110000002 0.15000000300000005 0.15000000300000005 0.14999998299999964 ))
  (( 0.4 0.2 0.2 0.2 )
  ( 0.4 0.2 0.2 0.2 ))))
  (((( 0.0 0.15 0.2 0.65 )
  ( 0.0 0.35 0.4 0.25 ))
  (( 0.0 0.15 0.15 0.7 )
  ( 0.0 0.15 0.15 0.7 )))
  ((( 0.0 0.2 0.2 0.6 )
  ( 0.0 0.49999999000000017 0.39999999200000014 0.10000001799999962 ))
  (( 0.0 0.3 0.2 0.5 )
  ( 0.0 0.3 0.2 0.5 ))))
  (((( 0.0 0.15 0.2 0.65 )
  ( 0.0 0.35 0.4 0.25 ))
  (( 0.0 0.15 0.15 0.7 )
  ( 0.0 0.15 0.15 0.7 )))
  ((( 0.0 0.2 0.2 0.6 )
  ( 0.0 0.49999999000000017 0.39999999200000014 0.10000001799999962 ))
  (( 0.0 0.3 0.2 0.5 )
  ( 0.0 0.3 0.2 0.5 ))))))
  (((((( 0.95 0.05 0.0 0.0 )
  ( 0.95 0.05 0.0 0.0 ))
  (( 0.6999999860000004 0.19999999600000012 0.0 0.10000001799999965 )
  ( 0.6999999860000004 0.19999999600000012 0.0 0.10000001799999965 )))
  ((( 0.95 0.05 0.0 0.0 )
  ( 0.95 0.05 0.0 0.0 ))
  (( 0.8999999909999999 0.0499999995 0.0 0.050000009499999894 )
  ( 0.8999999909999999 0.0499999995 0.0 0.050000009499999894 ))))
  (((( 0.8500000255000008 0.05000000150000005 0.0 0.09999997299999919 )
  ( 0.8500000255000008 0.05000000150000005 0.0 0.09999997299999919 ))
  (( 0.6499999675000016 0.14999999250000035 0.0 0.200000039999998 )
  ( 0.6499999675000016 0.14999999250000035 0.0 0.200000039999998 )))
  ((( 0.8999999909999999 0.0499999995 0.0 0.050000009499999894 )
  ( 0.8999999909999999 0.0499999995 0.0 0.050000009499999894 ))
  (( 0.8000000240000008 0.1000000030000001 0.0 0.09999997299999919 )
  ( 0.8000000240000008 0.1000000030000001 0.0 0.09999997299999919 ))))
  (((( 0.5 0.25 0.0 0.25 )
  ( 0.5 0.25 0.0 0.25 ))
  (( 0.4 0.25 0.0 0.35 )
  ( 0.4 0.25 0.0 0.35 )))
  ((( 0.5500000110000002 0.3000000060000001 0.0 0.14999998299999964 )
  ( 0.5500000110000002 0.3000000060000001 0.0 0.14999998299999964 ))
  (( 0.5 0.25 0.0 0.25 )
  ( 0.5 0.25 0.0 0.25 ))))
  (((( 0.0 0.3 0.0 0.7 )
  ( 0.0 0.3 0.0 0.7 ))
  (( 0.0 0.3 0.0 0.7 )
  ( 0.0 0.3 0.0 0.7 )))
  ((( 0.0 0.4 0.0 0.6 )
  ( 0.0 0.4 0.0 0.6 ))
  (( 0.0 0.5 0.0 0.5 )
  ( 0.0 0.5 0.0 0.5 ))))
  (((( 0.0 0.3 0.0 0.7 )
  ( 0.0 0.3 0.0 0.7 ))
  (( 0.0 0.3 0.0 0.7 )
  ( 0.0 0.3 0.0 0.7 )))
  ((( 0.0 0.4 0.0 0.6 )
  ( 0.0 0.4 0.0 0.6 ))
  (( 0.0 0.5 0.0 0.5 )
  ( 0.0 0.5 0.0 0.5 )))))
  ((((( 0.95 0.05 0.0 0.0 )
  ( 0.95 0.05 0.0 0.0 ))
  (( 0.6999999860000004 0.19999999600000012 0.0 0.10000001799999965 )
  ( 0.6999999860000004 0.19999999600000012 0.0 0.10000001799999965 )))
  ((( 0.95 0.05 0.0 0.0 )
  ( 0.95 0.05 0.0 0.0 ))
  (( 0.8999999909999999 0.0499999995 0.0 0.050000009499999894 )
  ( 0.8999999909999999 0.0499999995 0.0 0.050000009499999894 ))))
  (((( 0.8500000255000008 0.05000000150000005 0.0 0.09999997299999919 )
  ( 0.8500000255000008 0.05000000150000005 0.0 0.09999997299999919 ))
  (( 0.6499999675000016 0.14999999250000035 0.0 0.200000039999998 )
  ( 0.6499999675000016 0.14999999250000035 0.0 0.200000039999998 )))
  ((( 0.8999999909999999 0.0499999995 0.0 0.050000009499999894 )
  ( 0.8999999909999999 0.0499999995 0.0 0.050000009499999894 ))
  (( 0.8000000240000008 0.1000000030000001 0.0 0.09999997299999919 )
  ( 0.8000000240000008 0.1000000030000001 0.0 0.09999997299999919 ))))
  (((( 0.5 0.25 0.0 0.25 )
  ( 0.5 0.25 0.0 0.25 ))
  (( 0.4 0.25 0.0 0.35 )
  ( 0.4 0.25 0.0 0.35 )))
  ((( 0.5500000110000002 0.3000000060000001 0.0 0.14999998299999964 )
  ( 0.5500000110000002 0.3000000060000001 0.0 0.14999998299999964 ))
  (( 0.5 0.25 0.0 0.25 )
  ( 0.5 0.25 0.0 0.25 ))))
  (((( 0.0 0.3 0.0 0.7 )
  ( 0.0 0.3 0.0 0.7 ))
  (( 0.0 0.3 0.0 0.7 )
  ( 0.0 0.3 0.0 0.7 )))
  ((( 0.0 0.4 0.0 0.6 )
  ( 0.0 0.4 0.0 0.6 ))
  (( 0.0 0.5 0.0 0.5 )
  ( 0.0 0.5 0.0 0.5 ))))
  (((( 0.0 0.3 0.0 0.7 )
  ( 0.0 0.3 0.0 0.7 ))
  (( 0.0 0.3 0.0 0.7 )
  ( 0.0 0.3 0.0 0.7 )))
  ((( 0.0 0.4 0.0 0.6 )
  ( 0.0 0.4 0.0 0.6 ))
  (( 0.0 0.5 0.0 0.5 )
  ( 0.0 0.5 0.0 0.5 ))))))
  (((((( 0.8999999640000015 0.01999999920000003 0.0 0.08000003679999852 )
  ( 0.8999999640000015 0.01999999920000003 0.0 0.08000003679999852 ))
  (( 0.6000000300000015 0.10000000500000025 0.0 0.29999996499999826 )
  ( 0.6000000300000015 0.10000000500000025 0.0 0.29999996499999826 )))
  ((( 0.9499999715000008 0.019999999400000017 0.0 0.030000029099999125 )
  ( 0.9499999715000008 0.019999999400000017 0.0 0.030000029099999125 ))
  (( 0.8500000255000008 0.05000000150000005 0.0 0.09999997299999919 )
  ( 0.8500000255000008 0.05000000150000005 0.0 0.09999997299999919 ))))
  (((( 0.7500000150000002 0.10000000200000005 0.0 0.14999998299999967 )
  ( 0.7500000150000002 0.10000000200000005 0.0 0.14999998299999967 ))
  (( 0.5 0.15 0.0 0.35 )
  ( 0.5 0.15 0.0 0.35 )))
  ((( 0.8000000240000008 0.1000000030000001 0.0 0.09999997299999919 )
  ( 0.8000000240000008 0.1000000030000001 0.0 0.09999997299999919 ))
  (( 0.7 0.1 0.0 0.2 )
  ( 0.7 0.1 0.0 0.2 ))))
  (((( 0.4 0.2 0.0 0.4 )
  ( 0.4 0.2 0.0 0.4 ))
  (( 0.35 0.2 0.0 0.45 )
  ( 0.35 0.2 0.0 0.45 )))
  ((( 0.5 0.25 0.0 0.25 )
  ( 0.5 0.25 0.0 0.25 ))
  (( 0.4 0.2 0.0 0.4 )
  ( 0.4 0.2 0.0 0.4 ))))
  (((( 0.0 0.3 0.0 0.7 )
  ( 0.0 0.3 0.0 0.7 ))
  (( 0.0 0.3 0.0 0.7 )
  ( 0.0 0.3 0.0 0.7 )))
  ((( 0.0 0.4 0.0 0.6 )
  ( 0.0 0.4 0.0 0.6 ))
  (( 0.0 0.6 0.0 0.4 )
  ( 0.0 0.6 0.0 0.4 ))))
  (((( 0.0 0.3 0.0 0.7 )
  ( 0.0 0.3 0.0 0.7 ))
  (( 0.0 0.3 0.0 0.7 )
  ( 0.0 0.3 0.0 0.7 )))
  ((( 0.0 0.4 0.0 0.6 )
  ( 0.0 0.4 0.0 0.6 ))
  (( 0.0 0.6 0.0 0.4 )
  ( 0.0 0.6 0.0 0.4 )))))
  ((((( 0.8999999640000015 0.01999999920000003 0.0 0.08000003679999852 )
  ( 0.8999999640000015 0.01999999920000003 0.0 0.08000003679999852 ))
  (( 0.6000000300000015 0.10000000500000025 0.0 0.29999996499999826 )
  ( 0.6000000300000015 0.10000000500000025 0.0 0.29999996499999826 )))
  ((( 0.9499999715000008 0.019999999400000017 0.0 0.030000029099999125 )
  ( 0.9499999715000008 0.019999999400000017 0.0 0.030000029099999125 ))
  (( 0.8500000255000008 0.05000000150000005 0.0 0.09999997299999919 )
  ( 0.8500000255000008 0.05000000150000005 0.0 0.09999997299999919 ))))
  (((( 0.7500000150000002 0.10000000200000005 0.0 0.14999998299999967 )
  ( 0.7500000150000002 0.10000000200000005 0.0 0.14999998299999967 ))
  (( 0.5 0.15 0.0 0.35 )
  ( 0.5 0.15 0.0 0.35 )))
  ((( 0.8000000240000008 0.1000000030000001 0.0 0.09999997299999919 )
  ( 0.8000000240000008 0.1000000030000001 0.0 0.09999997299999919 ))
  (( 0.7 0.1 0.0 0.2 )
  ( 0.7 0.1 0.0 0.2 ))))
  (((( 0.4 0.2 0.0 0.4 )
  ( 0.4 0.2 0.0 0.4 ))
  (( 0.35 0.2 0.0 0.45 )
  ( 0.35 0.2 0.0 0.45 )))
  ((( 0.5 0.25 0.0 0.25 )
  ( 0.5 0.25 0.0 0.25 ))
  (( 0.4 0.2 0.0 0.4 )
  ( 0.4 0.2 0.0 0.4 ))))
  (((( 0.0 0.3 0.0 0.7 )
  ( 0.0 0.3 0.0 0.7 ))
  (( 0.0 0.3 0.0 0.7 )
  ( 0.0 0.3 0.0 0.7 )))
  ((( 0.0 0.4 0.0 0.6 )
  ( 0.0 0.4 0.0 0.6 ))
  (( 0.0 0.6 0.0 0.4 )
  ( 0.0 0.6 0.0 0.4 ))))
  (((( 0.0 0.3 0.0 0.7 )
  ( 0.0 0.3 0.0 0.7 ))
  (( 0.0 0.3 0.0 0.7 )
  ( 0.0 0.3 0.0 0.7 )))
  ((( 0.0 0.4 0.0 0.6 )
  ( 0.0 0.4 0.0 0.6 ))
  (( 0.0 0.6 0.0 0.4 )
  ( 0.0 0.6 0.0 0.4 )))))))
  ((((((( 0.7500000150000004 0.10000000200000006 0.07000000140000004 0.07999998159999964 )
  ( 0.800000040000002 0.10000000500000025 0.050000002500000126 0.04999995249999762 ))
  (( 0.7500000150000004 0.10000000200000006 0.07000000140000004 0.07999998159999964 )
  ( 0.7500000150000004 0.10000000200000006 0.07000000140000004 0.07999998159999964 )))
  ((( 0.800000040000002 0.10000000500000025 0.050000002500000126 0.04999995249999762 )
  ( 0.8999999640000013 0.04999999800000007 0.029999998800000042 0.020000039199998428 ))
  (( 0.8999999640000013 0.04999999800000007 0.029999998800000042 0.020000039199998428 )
  ( 0.8999999640000013 0.04999999800000007 0.029999998800000042 0.020000039199998428 ))))
  (((( 0.65 0.1 0.12 0.13 )
  ( 0.7000000350000017 0.15000000750000037 0.10000000500000025 0.04999995249999763 ))
  (( 0.7000000210000006 0.1000000030000001 0.1000000030000001 0.09999997299999919 )
  ( 0.7000000210000006 0.1000000030000001 0.1000000030000001 0.09999997299999919 )))
  ((( 0.7000000210000006 0.1000000030000001 0.1000000030000001 0.09999997299999919 )
  ( 0.800000040000002 0.10000000500000025 0.050000002500000126 0.04999995249999762 ))
  (( 0.800000040000002 0.10000000500000025 0.050000002500000126 0.04999995249999762 )
  ( 0.800000040000002 0.10000000500000025 0.050000002500000126 0.04999995249999762 ))))
  (((( 0.4999999800000007 0.1499999940000002 0.1999999920000003 0.15000003399999862 )
  ( 0.6000000180000006 0.2000000060000002 0.1000000030000001 0.09999997299999919 ))
  (( 0.5 0.1 0.2 0.2 )
  ( 0.5 0.1 0.2 0.2 )))
  ((( 0.5999999880000002 0.14999999700000005 0.14999999700000005 0.10000001799999962 )
  ( 0.7000000210000006 0.1000000030000001 0.1000000030000001 0.09999997299999919 ))
  (( 0.7000000210000006 0.1000000030000001 0.1000000030000001 0.09999997299999919 )
  ( 0.7000000210000006 0.1000000030000001 0.1000000030000001 0.09999997299999919 ))))
  (((( 0.4 0.15 0.2 0.25 )
  ( 0.4 0.2 0.2 0.2 ))
  (( 0.4 0.15 0.2 0.25 )
  ( 0.4 0.15 0.2 0.25 )))
  ((( 0.4499999775000011 0.1999999900000005 0.14999999250000035 0.200000039999998 )
  ( 0.4 0.2 0.2 0.2 ))
  (( 0.6000000120000002 0.15000000300000005 0.10000000200000005 0.14999998299999967 )
  ( 0.6000000120000002 0.15000000300000005 0.10000000200000005 0.14999998299999967 ))))
  (((( 0.4 0.15 0.2 0.25 )
  ( 0.5500000110000002 0.15000000300000005 0.15000000300000005 0.14999998299999964 ))
  (( 0.4 0.15 0.2 0.25 )
  ( 0.4 0.15 0.2 0.25 )))
  ((( 0.4499999775000011 0.1999999900000005 0.14999999250000035 0.200000039999998 )
  ( 0.5500000110000002 0.15000000300000005 0.15000000300000005 0.14999998299999964 ))
  (( 0.6000000120000002 0.15000000300000005 0.10000000200000005 0.14999998299999967 )
  ( 0.6000000120000002 0.15000000300000005 0.10000000200000005 0.14999998299999967 )))))
  ((((( 0.65 0.1 0.07 0.18 )
  ( 0.7000000140000002 0.10000000200000005 0.05000000100000002 0.14999998299999967 ))
  (( 0.65 0.1 0.07 0.18 )
  ( 0.65 0.1 0.07 0.18 )))
  ((( 0.7000000140000002 0.10000000200000005 0.05000000100000002 0.14999998299999967 )
  ( 0.7999999420000005 0.0499999995 0.0299999997 0.12000005879999939 ))
  (( 0.7999999420000005 0.0499999995 0.0299999997 0.12000005879999939 )
  ( 0.7999999420000005 0.0499999995 0.0299999997 0.12000005879999939 ))))
  (((( 0.549999966499999 0.1000000030000001 0.12000000360000011 0.23000002690000082 )
  ( 0.5999999959999998 0.15000000900000052 0.10000000600000036 0.14999998899999933 ))
  (( 0.5999999839999993 0.10000000400000017 0.10000000400000017 0.20000000800000034 )
  ( 0.5999999839999993 0.10000000400000017 0.10000000400000017 0.20000000800000034 )))
  ((( 0.5999999839999993 0.10000000400000017 0.10000000400000017 0.20000000800000034 )
  ( 0.7000000140000002 0.10000000200000005 0.05000000100000002 0.14999998299999967 ))
  (( 0.7000000140000002 0.10000000200000005 0.05000000100000002 0.14999998299999967 )
  ( 0.7000000140000002 0.10000000200000005 0.05000000100000002 0.14999998299999967 ))))
  (((( 0.4 0.15 0.2 0.25 )
  ( 0.5 0.2 0.1 0.2 ))
  (( 0.4 0.1 0.2 0.3 )
  ( 0.4 0.1 0.2 0.3 )))
  ((( 0.4999999750000012 0.14999999250000035 0.14999999250000035 0.200000039999998 )
  ( 0.5999999839999993 0.10000000400000017 0.10000000400000017 0.20000000800000034 ))
  (( 0.5999999839999993 0.10000000400000017 0.10000000400000017 0.20000000800000034 )
  ( 0.5999999839999993 0.10000000400000017 0.10000000400000017 0.20000000800000034 ))))
  (((( 0.3000000120000005 0.15000000600000024 0.20000000800000034 0.349999973999999 )
  ( 0.3 0.2 0.2 0.3 ))
  (( 0.3000000120000005 0.15000000600000024 0.20000000800000034 0.349999973999999 )
  ( 0.3000000120000005 0.15000000600000024 0.20000000800000034 0.349999973999999 )))
  ((( 0.3500000175000008 0.2000000100000005 0.15000000750000037 0.29999996499999826 )
  ( 0.3 0.2 0.2 0.3 ))
  (( 0.5 0.15 0.1 0.25 )
  ( 0.5 0.15 0.1 0.25 ))))
  (((( 0.3000000120000005 0.15000000600000024 0.20000000800000034 0.349999973999999 )
  ( 0.45 0.15 0.15 0.25 ))
  (( 0.3000000120000005 0.15000000600000024 0.20000000800000034 0.349999973999999 )
  ( 0.3000000120000005 0.15000000600000024 0.20000000800000034 0.349999973999999 )))
  ((( 0.3500000175000008 0.2000000100000005 0.15000000750000037 0.29999996499999826 )
  ( 0.45 0.15 0.15 0.25 ))
  (( 0.5 0.15 0.1 0.25 )
  ( 0.5 0.15 0.1 0.25 ))))))
  (((((( 0.9 0.1 0.0 0.0 )
  ( 0.9 0.1 0.0 0.0 ))
  (( 0.7500000150000002 0.10000000200000005 0.0 0.14999998299999967 )
  ( 0.7500000150000002 0.10000000200000005 0.0 0.14999998299999967 )))
  ((( 0.8000000240000008 0.1000000030000001 0.0 0.09999997299999919 )
  ( 0.8000000240000008 0.1000000030000001 0.0 0.09999997299999919 ))
  (( 0.8999999909999999 0.0499999995 0.0 0.050000009499999894 )
  ( 0.8999999909999999 0.0499999995 0.0 0.050000009499999894 ))))
  (((( 0.7 0.1 0.0 0.2 )
  ( 0.7 0.1 0.0 0.2 ))
  (( 0.7 0.1 0.0 0.2 )
  ( 0.7 0.1 0.0 0.2 )))
  ((( 0.7 0.1 0.0 0.2 )
  ( 0.7 0.1 0.0 0.2 ))
  (( 0.8000000240000008 0.1000000030000001 0.0 0.09999997299999919 )
  ( 0.8000000240000008 0.1000000030000001 0.0 0.09999997299999919 ))))
  (((( 0.5 0.15 0.0 0.35 )
  ( 0.5 0.15 0.0 0.35 ))
  (( 0.5 0.1 0.0 0.4 )
  ( 0.5 0.1 0.0 0.4 )))
  ((( 0.6 0.15 0.0 0.25 )
  ( 0.6 0.15 0.0 0.25 ))
  (( 0.7 0.1 0.0 0.2 )
  ( 0.7 0.1 0.0 0.2 ))))
  (((( 0.4 0.15 0.0 0.45 )
  ( 0.4 0.15 0.0 0.45 ))
  (( 0.4 0.15 0.0 0.45 )
  ( 0.4 0.15 0.0 0.45 )))
  ((( 0.45 0.2 0.0 0.35 )
  ( 0.45 0.2 0.0 0.35 ))
  (( 0.6 0.15 0.0 0.25 )
  ( 0.6 0.15 0.0 0.25 ))))
  (((( 0.4 0.15 0.0 0.45 )
  ( 0.4 0.15 0.0 0.45 ))
  (( 0.4 0.15 0.0 0.45 )
  ( 0.4 0.15 0.0 0.45 )))
  ((( 0.45 0.2 0.0 0.35 )
  ( 0.45 0.2 0.0 0.35 ))
  (( 0.6 0.15 0.0 0.25 )
  ( 0.6 0.15 0.0 0.25 )))))
  ((((( 0.9 0.1 0.0 0.0 )
  ( 0.9 0.1 0.0 0.0 ))
  (( 0.7500000150000002 0.10000000200000005 0.0 0.14999998299999967 )
  ( 0.7500000150000002 0.10000000200000005 0.0 0.14999998299999967 )))
  ((( 0.8000000240000008 0.1000000030000001 0.0 0.09999997299999919 )
  ( 0.8000000240000008 0.1000000030000001 0.0 0.09999997299999919 ))
  (( 0.8999999909999999 0.0499999995 0.0 0.050000009499999894 )
  ( 0.8999999909999999 0.0499999995 0.0 0.050000009499999894 ))))
  (((( 0.7 0.1 0.0 0.2 )
  ( 0.7 0.1 0.0 0.2 ))
  (( 0.7 0.1 0.0 0.2 )
  ( 0.7 0.1 0.0 0.2 )))
  ((( 0.7 0.1 0.0 0.2 )
  ( 0.7 0.1 0.0 0.2 ))
  (( 0.8000000240000008 0.1000000030000001 0.0 0.09999997299999919 )
  ( 0.8000000240000008 0.1000000030000001 0.0 0.09999997299999919 ))))
  (((( 0.5 0.15 0.0 0.35 )
  ( 0.5 0.15 0.0 0.35 ))
  (( 0.5 0.1 0.0 0.4 )
  ( 0.5 0.1 0.0 0.4 )))
  ((( 0.6 0.15 0.0 0.25 )
  ( 0.6 0.15 0.0 0.25 ))
  (( 0.7 0.1 0.0 0.2 )
  ( 0.7 0.1 0.0 0.2 ))))
  (((( 0.4 0.15 0.0 0.45 )
  ( 0.4 0.15 0.0 0.45 ))
  (( 0.4 0.15 0.0 0.45 )
  ( 0.4 0.15 0.0 0.45 )))
  ((( 0.45 0.2 0.0 0.35 )
  ( 0.45 0.2 0.0 0.35 ))
  (( 0.6 0.15 0.0 0.25 )
  ( 0.6 0.15 0.0 0.25 ))))
  (((( 0.4 0.15 0.0 0.45 )
  ( 0.4 0.15 0.0 0.45 ))
  (( 0.4 0.15 0.0 0.45 )
  ( 0.4 0.15 0.0 0.45 )))
  ((( 0.45 0.2 0.0 0.35 )
  ( 0.45 0.2 0.0 0.35 ))
  (( 0.6 0.15 0.0 0.25 )
  ( 0.6 0.15 0.0 0.25 ))))))
  (((((( 0.9 0.1 0.0 0.0 )
  ( 0.9 0.1 0.0 0.0 ))
  (( 0.7500000150000002 0.10000000200000005 0.0 0.14999998299999967 )
  ( 0.7500000150000002 0.10000000200000005 0.0 0.14999998299999967 )))
  ((( 0.8000000240000008 0.1000000030000001 0.0 0.09999997299999919 )
  ( 0.8000000240000008 0.1000000030000001 0.0 0.09999997299999919 ))
  (( 0.8999999909999999 0.0499999995 0.0 0.050000009499999894 )
  ( 0.8999999909999999 0.0499999995 0.0 0.050000009499999894 ))))
  (((( 0.7 0.1 0.0 0.2 )
  ( 0.7 0.1 0.0 0.2 ))
  (( 0.7 0.1 0.0 0.2 )
  ( 0.7 0.1 0.0 0.2 )))
  ((( 0.7 0.1 0.0 0.2 )
  ( 0.7 0.1 0.0 0.2 ))
  (( 0.8000000240000008 0.1000000030000001 0.0 0.09999997299999919 )
  ( 0.8000000240000008 0.1000000030000001 0.0 0.09999997299999919 ))))
  (((( 0.5 0.15 0.0 0.35 )
  ( 0.5 0.15 0.0 0.35 ))
  (( 0.5 0.1 0.0 0.4 )
  ( 0.5 0.1 0.0 0.4 )))
  ((( 0.6 0.15 0.0 0.25 )
  ( 0.6 0.15 0.0 0.25 ))
  (( 0.7 0.1 0.0 0.2 )
  ( 0.7 0.1 0.0 0.2 ))))
  (((( 0.4 0.15 0.0 0.45 )
  ( 0.4 0.15 0.0 0.45 ))
  (( 0.4 0.15 0.0 0.45 )
  ( 0.4 0.15 0.0 0.45 )))
  ((( 0.45 0.2 0.0 0.35 )
  ( 0.45 0.2 0.0 0.35 ))
  (( 0.6 0.15 0.0 0.25 )
  ( 0.6 0.15 0.0 0.25 ))))
  (((( 0.4 0.15 0.0 0.45 )
  ( 0.4 0.15 0.0 0.45 ))
  (( 0.4 0.15 0.0 0.45 )
  ( 0.4 0.15 0.0 0.45 )))
  ((( 0.45 0.2 0.0 0.35 )
  ( 0.45 0.2 0.0 0.35 ))
  (( 0.6 0.15 0.0 0.25 )
  ( 0.6 0.15 0.0 0.25 )))))
  ((((( 0.9 0.1 0.0 0.0 )
  ( 0.9 0.1 0.0 0.0 ))
  (( 0.7500000150000002 0.10000000200000005 0.0 0.14999998299999967 )
  ( 0.7500000150000002 0.10000000200000005 0.0 0.14999998299999967 )))
  ((( 0.8000000240000008 0.1000000030000001 0.0 0.09999997299999919 )
  ( 0.8000000240000008 0.1000000030000001 0.0 0.09999997299999919 ))
  (( 0.8999999909999999 0.0499999995 0.0 0.050000009499999894 )
  ( 0.8999999909999999 0.0499999995 0.0 0.050000009499999894 ))))
  (((( 0.7 0.1 0.0 0.2 )
  ( 0.7 0.1 0.0 0.2 ))
  (( 0.7 0.1 0.0 0.2 )
  ( 0.7 0.1 0.0 0.2 )))
  ((( 0.7 0.1 0.0 0.2 )
  ( 0.7 0.1 0.0 0.2 ))
  (( 0.8000000240000008 0.1000000030000001 0.0 0.09999997299999919 )
  ( 0.8000000240000008 0.1000000030000001 0.0 0.09999997299999919 ))))
  (((( 0.5 0.15 0.0 0.35 )
  ( 0.5 0.15 0.0 0.35 ))
  (( 0.5 0.1 0.0 0.4 )
  ( 0.5 0.1 0.0 0.4 )))
  ((( 0.6 0.15 0.0 0.25 )
  ( 0.6 0.15 0.0 0.25 ))
  (( 0.7 0.1 0.0 0.2 )
  ( 0.7 0.1 0.0 0.2 ))))
  (((( 0.4 0.15 0.0 0.45 )
  ( 0.4 0.15 0.0 0.45 ))
  (( 0.4 0.15 0.0 0.45 )
  ( 0.4 0.15 0.0 0.45 )))
  ((( 0.45 0.2 0.0 0.35 )
  ( 0.45 0.2 0.0 0.35 ))
  (( 0.6 0.15 0.0 0.25 )
  ( 0.6 0.15 0.0 0.25 ))))
  (((( 0.4 0.15 0.0 0.45 )
  ( 0.4 0.15 0.0 0.45 ))
  (( 0.4 0.15 0.0 0.45 )
  ( 0.4 0.15 0.0 0.45 )))
  ((( 0.45 0.2 0.0 0.35 )
  ( 0.45 0.2 0.0 0.35 ))
  (( 0.6 0.15 0.0 0.25 )
  ( 0.6 0.15 0.0 0.25 )))))))
  ((((((( 0.9499999525000024 0.029999998500000076 0.009999999500000026 0.010000049499997526 )
  ( 0.9499999525000024 0.029999998500000076 0.009999999500000026 0.010000049499997526 ))
  (( 0.800000040000002 0.10000000500000025 0.050000002500000126 0.04999995249999762 )
  ( 0.800000040000002 0.10000000500000025 0.050000002500000126 0.04999995249999762 )))
  ((( 0.9499999525000024 0.029999998500000076 0.009999999500000026 0.010000049499997526 )
  ( 0.9499999525000024 0.029999998500000076 0.009999999500000026 0.010000049499997526 ))
  (( 0.8999999640000013 0.04999999800000007 0.029999998800000042 0.020000039199998428 )
  ( 0.8999999640000013 0.04999999800000007 0.029999998800000042 0.020000039199998428 ))))
  (((( 0.8500000170000003 0.10000000200000005 0.03000000060000001 0.019999980399999607 )
  ( 0.8500000170000003 0.10000000200000005 0.03000000060000001 0.019999980399999607 ))
  (( 0.7500000225000008 0.1000000030000001 0.05000000150000005 0.09999997299999919 )
  ( 0.7500000225000008 0.1000000030000001 0.05000000150000005 0.09999997299999919 )))
  ((( 0.8500000170000003 0.10000000200000005 0.03000000060000001 0.019999980399999607 )
  ( 0.8500000170000003 0.10000000200000005 0.03000000060000001 0.019999980399999607 ))
  (( 0.850000042500002 0.050000002500000126 0.050000002500000126 0.04999995249999762 )
  ( 0.850000042500002 0.050000002500000126 0.050000002500000126 0.04999995249999762 ))))
  (((( 0.6499999934999999 0.199999998 0.099999999 0.050000009499999894 )
  ( 0.6499999934999999 0.199999998 0.099999999 0.050000009499999894 ))
  (( 0.5500000110000002 0.15000000300000005 0.15000000300000005 0.14999998299999964 )
  ( 0.5500000110000002 0.15000000300000005 0.15000000300000005 0.14999998299999964 )))
  ((( 0.6499999934999999 0.199999998 0.099999999 0.050000009499999894 )
  ( 0.6499999934999999 0.199999998 0.099999999 0.050000009499999894 ))
  (( 0.7499999924999999 0.14999999849999998 0.0499999995 0.050000009499999894 )
  ( 0.7499999924999999 0.14999999849999998 0.0499999995 0.050000009499999894 ))))
  (((( 0.4499999775000011 0.1999999900000005 0.14999999250000035 0.200000039999998 )
  ( 0.4499999775000011 0.1999999900000005 0.14999999250000035 0.200000039999998 ))
  (( 0.44999998200000063 0.1999999920000003 0.1999999920000003 0.15000003399999862 )
  ( 0.44999998200000063 0.1999999920000003 0.1999999920000003 0.15000003399999862 )))
  ((( 0.5000000100000002 0.2500000050000001 0.10000000200000005 0.14999998299999967 )
  ( 0.5000000100000002 0.2500000050000001 0.10000000200000005 0.14999998299999967 ))
  (( 0.6499999934999999 0.199999998 0.099999999 0.050000009499999894 )
  ( 0.6499999934999999 0.199999998 0.099999999 0.050000009499999894 ))))
  (((( 0.4499999775000011 0.1999999900000005 0.14999999250000035 0.200000039999998 )
  ( 0.4499999775000011 0.1999999900000005 0.14999999250000035 0.200000039999998 ))
  (( 0.44999998200000063 0.1999999920000003 0.1999999920000003 0.15000003399999862 )
  ( 0.44999998200000063 0.1999999920000003 0.1999999920000003 0.15000003399999862 )))
  ((( 0.5000000100000002 0.2500000050000001 0.10000000200000005 0.14999998299999967 )
  ( 0.5000000100000002 0.2500000050000001 0.10000000200000005 0.14999998299999967 ))
  (( 0.6499999934999999 0.199999998 0.099999999 0.050000009499999894 )
  ( 0.6499999934999999 0.199999998 0.099999999 0.050000009499999894 )))))
  ((((( 0.8499999405000042 0.029999997900000144 0.00999999930000005 0.11000006229999565 )
  ( 0.8499999405000042 0.029999997900000144 0.00999999930000005 0.11000006229999565 ))
  (( 0.7000000140000002 0.10000000200000005 0.05000000100000002 0.14999998299999967 )
  ( 0.7000000140000002 0.10000000200000005 0.05000000100000002 0.14999998299999967 )))
  ((( 0.8499999405000042 0.029999997900000144 0.00999999930000005 0.11000006229999565 )
  ( 0.8499999405000042 0.029999997900000144 0.00999999930000005 0.11000006229999565 ))
  (( 0.7999999420000005 0.0499999995 0.0299999997 0.12000005879999939 )
  ( 0.7999999420000005 0.0499999995 0.0299999997 0.12000005879999939 ))))
  (((( 0.75 0.1 0.03 0.12 )
  ( 0.75 0.1 0.03 0.12 ))
  (( 0.65 0.1 0.05 0.2 )
  ( 0.65 0.1 0.05 0.2 )))
  ((( 0.75 0.1 0.03 0.12 )
  ( 0.75 0.1 0.03 0.12 ))
  (( 0.7500000150000002 0.050000001000000016 0.050000001000000016 0.14999998299999964 )
  ( 0.7500000150000002 0.050000001000000016 0.050000001000000016 0.14999998299999964 ))))
  (((( 0.5499999554999996 0.200000002 0.100000001 0.1500000415000004 )
  ( 0.5499999554999996 0.200000002 0.100000001 0.1500000415000004 ))
  (( 0.45 0.15 0.15 0.25 )
  ( 0.45 0.15 0.15 0.25 )))
  ((( 0.5499999554999996 0.200000002 0.100000001 0.1500000415000004 )
  ( 0.5499999554999996 0.200000002 0.100000001 0.1500000415000004 ))
  (( 0.649999974000001 0.1499999940000002 0.04999999800000007 0.15000003399999862 )
  ( 0.649999974000001 0.1499999940000002 0.04999999800000007 0.15000003399999862 ))))
  (((( 0.3500000175000008 0.2000000100000005 0.15000000750000037 0.29999996499999826 )
  ( 0.3500000175000008 0.2000000100000005 0.15000000750000037 0.29999996499999826 ))
  (( 0.35 0.2 0.2 0.25 )
  ( 0.35 0.2 0.2 0.25 )))
  ((( 0.4 0.25 0.1 0.25 )
  ( 0.4 0.25 0.1 0.25 ))
  (( 0.5499999554999996 0.200000002 0.100000001 0.1500000415000004 )
  ( 0.5499999554999996 0.200000002 0.100000001 0.1500000415000004 ))))
  (((( 0.3500000175000008 0.2000000100000005 0.15000000750000037 0.29999996499999826 )
  ( 0.3500000175000008 0.2000000100000005 0.15000000750000037 0.29999996499999826 ))
  (( 0.35 0.2 0.2 0.25 )
  ( 0.35 0.2 0.2 0.25 )))
  ((( 0.4 0.25 0.1 0.25 )
  ( 0.4 0.25 0.1 0.25 ))
  (( 0.5499999554999996 0.200000002 0.100000001 0.1500000415000004 )
  ( 0.5499999554999996 0.200000002 0.100000001 0.1500000415000004 ))))))
  (((((( 0.9499999620000015 0.02999999880000005 0.0 0.02000003919999843 )
  ( 0.9499999620000015 0.02999999880000005 0.0 0.02000003919999843 ))
  (( 0.8000000240000008 0.1000000030000001 0.0 0.09999997299999919 )
  ( 0.8000000240000008 0.1000000030000001 0.0 0.09999997299999919 )))
  ((( 0.9499999620000015 0.02999999880000005 0.0 0.02000003919999843 )
  ( 0.9499999620000015 0.02999999880000005 0.0 0.02000003919999843 ))
  (( 0.8999999909999999 0.0499999995 0.0 0.050000009499999894 )
  ( 0.8999999909999999 0.0499999995 0.0 0.050000009499999894 ))))
  (((( 0.9 0.1 0.0 0.0 )
  ( 0.9 0.1 0.0 0.0 ))
  (( 0.7500000150000002 0.10000000200000005 0.0 0.14999998299999967 )
  ( 0.7500000150000002 0.10000000200000005 0.0 0.14999998299999967 )))
  ((( 0.9 0.1 0.0 0.0 )
  ( 0.9 0.1 0.0 0.0 ))
  (( 0.8500000255000008 0.05000000150000005 0.0 0.09999997299999919 )
  ( 0.8500000255000008 0.05000000150000005 0.0 0.09999997299999919 ))))
  (((( 0.649999974000001 0.1999999920000003 0.0 0.15000003399999862 )
  ( 0.649999974000001 0.1999999920000003 0.0 0.15000003399999862 ))
  (( 0.5500000275000013 0.15000000750000037 0.0 0.29999996499999826 )
  ( 0.5500000275000013 0.15000000750000037 0.0 0.29999996499999826 )))
  ((( 0.649999974000001 0.1999999920000003 0.0 0.15000003399999862 )
  ( 0.649999974000001 0.1999999920000003 0.0 0.15000003399999862 ))
  (( 0.7499999850000002 0.14999999700000005 0.0 0.10000001799999962 )
  ( 0.7499999850000002 0.14999999700000005 0.0 0.10000001799999962 ))))
  (((( 0.45 0.2 0.0 0.35 )
  ( 0.45 0.2 0.0 0.35 ))
  (( 0.45 0.2 0.0 0.35 )
  ( 0.45 0.2 0.0 0.35 )))
  ((( 0.5 0.25 0.0 0.25 )
  ( 0.5 0.25 0.0 0.25 ))
  (( 0.649999974000001 0.1999999920000003 0.0 0.15000003399999862 )
  ( 0.649999974000001 0.1999999920000003 0.0 0.15000003399999862 ))))
  (((( 0.45 0.2 0.0 0.35 )
  ( 0.45 0.2 0.0 0.35 ))
  (( 0.45 0.2 0.0 0.35 )
  ( 0.45 0.2 0.0 0.35 )))
  ((( 0.5 0.25 0.0 0.25 )
  ( 0.5 0.25 0.0 0.25 ))
  (( 0.649999974000001 0.1999999920000003 0.0 0.15000003399999862 )
  ( 0.649999974000001 0.1999999920000003 0.0 0.15000003399999862 )))))
  ((((( 0.9499999620000015 0.02999999880000005 0.0 0.02000003919999843 )
  ( 0.9499999620000015 0.02999999880000005 0.0 0.02000003919999843 ))
  (( 0.8000000240000008 0.1000000030000001 0.0 0.09999997299999919 )
  ( 0.8000000240000008 0.1000000030000001 0.0 0.09999997299999919 )))
  ((( 0.9499999620000015 0.02999999880000005 0.0 0.02000003919999843 )
  ( 0.9499999620000015 0.02999999880000005 0.0 0.02000003919999843 ))
  (( 0.8999999909999999 0.0499999995 0.0 0.050000009499999894 )
  ( 0.8999999909999999 0.0499999995 0.0 0.050000009499999894 ))))
  (((( 0.9 0.1 0.0 0.0 )
  ( 0.9 0.1 0.0 0.0 ))
  (( 0.7500000150000002 0.10000000200000005 0.0 0.14999998299999967 )
  ( 0.7500000150000002 0.10000000200000005 0.0 0.14999998299999967 )))
  ((( 0.9 0.1 0.0 0.0 )
  ( 0.9 0.1 0.0 0.0 ))
  (( 0.8500000255000008 0.05000000150000005 0.0 0.09999997299999919 )
  ( 0.8500000255000008 0.05000000150000005 0.0 0.09999997299999919 ))))
  (((( 0.649999974000001 0.1999999920000003 0.0 0.15000003399999862 )
  ( 0.649999974000001 0.1999999920000003 0.0 0.15000003399999862 ))
  (( 0.5500000275000013 0.15000000750000037 0.0 0.29999996499999826 )
  ( 0.5500000275000013 0.15000000750000037 0.0 0.29999996499999826 )))
  ((( 0.649999974000001 0.1999999920000003 0.0 0.15000003399999862 )
  ( 0.649999974000001 0.1999999920000003 0.0 0.15000003399999862 ))
  (( 0.7499999850000002 0.14999999700000005 0.0 0.10000001799999962 )
  ( 0.7499999850000002 0.14999999700000005 0.0 0.10000001799999962 ))))
  (((( 0.45 0.2 0.0 0.35 )
  ( 0.45 0.2 0.0 0.35 ))
  (( 0.45 0.2 0.0 0.35 )
  ( 0.45 0.2 0.0 0.35 )))
  ((( 0.5 0.25 0.0 0.25 )
  ( 0.5 0.25 0.0 0.25 ))
  (( 0.649999974000001 0.1999999920000003 0.0 0.15000003399999862 )
  ( 0.649999974000001 0.1999999920000003 0.0 0.15000003399999862 ))))
  (((( 0.45 0.2 0.0 0.35 )
  ( 0.45 0.2 0.0 0.35 ))
  (( 0.45 0.2 0.0 0.35 )
  ( 0.45 0.2 0.0 0.35 )))
  ((( 0.5 0.25 0.0 0.25 )
  ( 0.5 0.25 0.0 0.25 ))
  (( 0.649999974000001 0.1999999920000003 0.0 0.15000003399999862 )
  ( 0.649999974000001 0.1999999920000003 0.0 0.15000003399999862 ))))))
  (((((( 0.9499999620000015 0.02999999880000005 0.0 0.02000003919999843 )
  ( 0.9499999620000015 0.02999999880000005 0.0 0.02000003919999843 ))
  (( 0.8000000240000008 0.1000000030000001 0.0 0.09999997299999919 )
  ( 0.8000000240000008 0.1000000030000001 0.0 0.09999997299999919 )))
  ((( 0.9499999620000015 0.02999999880000005 0.0 0.02000003919999843 )
  ( 0.9499999620000015 0.02999999880000005 0.0 0.02000003919999843 ))
  (( 0.8999999909999999 0.0499999995 0.0 0.050000009499999894 )
  ( 0.8999999909999999 0.0499999995 0.0 0.050000009499999894 ))))
  (((( 0.9 0.1 0.0 0.0 )
  ( 0.9 0.1 0.0 0.0 ))
  (( 0.7500000150000002 0.10000000200000005 0.0 0.14999998299999967 )
  ( 0.7500000150000002 0.10000000200000005 0.0 0.14999998299999967 )))
  ((( 0.9 0.1 0.0 0.0 )
  ( 0.9 0.1 0.0 0.0 ))
  (( 0.8500000255000008 0.05000000150000005 0.0 0.09999997299999919 )
  ( 0.8500000255000008 0.05000000150000005 0.0 0.09999997299999919 ))))
  (((( 0.649999974000001 0.1999999920000003 0.0 0.15000003399999862 )
  ( 0.649999974000001 0.1999999920000003 0.0 0.15000003399999862 ))
  (( 0.5500000275000013 0.15000000750000037 0.0 0.29999996499999826 )
  ( 0.5500000275000013 0.15000000750000037 0.0 0.29999996499999826 )))
  ((( 0.649999974000001 0.1999999920000003 0.0 0.15000003399999862 )
  ( 0.649999974000001 0.1999999920000003 0.0 0.15000003399999862 ))
  (( 0.7499999850000002 0.14999999700000005 0.0 0.10000001799999962 )
  ( 0.7499999850000002 0.14999999700000005 0.0 0.10000001799999962 ))))
  (((( 0.45 0.2 0.0 0.35 )
  ( 0.45 0.2 0.0 0.35 ))
  (( 0.45 0.2 0.0 0.35 )
  ( 0.45 0.2 0.0 0.35 )))
  ((( 0.5 0.25 0.0 0.25 )
  ( 0.5 0.25 0.0 0.25 ))
  (( 0.649999974000001 0.1999999920000003 0.0 0.15000003399999862 )
  ( 0.649999974000001 0.1999999920000003 0.0 0.15000003399999862 ))))
  (((( 0.45 0.2 0.0 0.35 )
  ( 0.45 0.2 0.0 0.35 ))
  (( 0.45 0.2 0.0 0.35 )
  ( 0.45 0.2 0.0 0.35 )))
  ((( 0.5 0.25 0.0 0.25 )
  ( 0.5 0.25 0.0 0.25 ))
  (( 0.649999974000001 0.1999999920000003 0.0 0.15000003399999862 )
  ( 0.649999974000001 0.1999999920000003 0.0 0.15000003399999862 )))))
  ((((( 0.9499999620000015 0.02999999880000005 0.0 0.02000003919999843 )
  ( 0.9499999620000015 0.02999999880000005 0.0 0.02000003919999843 ))
  (( 0.8000000240000008 0.1000000030000001 0.0 0.09999997299999919 )
  ( 0.8000000240000008 0.1000000030000001 0.0 0.09999997299999919 )))
  ((( 0.9499999620000015 0.02999999880000005 0.0 0.02000003919999843 )
  ( 0.9499999620000015 0.02999999880000005 0.0 0.02000003919999843 ))
  (( 0.8999999909999999 0.0499999995 0.0 0.050000009499999894 )
  ( 0.8999999909999999 0.0499999995 0.0 0.050000009499999894 ))))
  (((( 0.9 0.1 0.0 0.0 )
  ( 0.9 0.1 0.0 0.0 ))
  (( 0.7500000150000002 0.10000000200000005 0.0 0.14999998299999967 )
  ( 0.7500000150000002 0.10000000200000005 0.0 0.14999998299999967 )))
  ((( 0.9 0.1 0.0 0.0 )
  ( 0.9 0.1 0.0 0.0 ))
  (( 0.8500000255000008 0.05000000150000005 0.0 0.09999997299999919 )
  ( 0.8500000255000008 0.05000000150000005 0.0 0.09999997299999919 ))))
  (((( 0.649999974000001 0.1999999920000003 0.0 0.15000003399999862 )
  ( 0.649999974000001 0.1999999920000003 0.0 0.15000003399999862 ))
  (( 0.5500000275000013 0.15000000750000037 0.0 0.29999996499999826 )
  ( 0.5500000275000013 0.15000000750000037 0.0 0.29999996499999826 )))
  ((( 0.649999974000001 0.1999999920000003 0.0 0.15000003399999862 )
  ( 0.649999974000001 0.1999999920000003 0.0 0.15000003399999862 ))
  (( 0.7499999850000002 0.14999999700000005 0.0 0.10000001799999962 )
  ( 0.7499999850000002 0.14999999700000005 0.0 0.10000001799999962 ))))
  (((( 0.45 0.2 0.0 0.35 )
  ( 0.45 0.2 0.0 0.35 ))
  (( 0.45 0.2 0.0 0.35 )
  ( 0.45 0.2 0.0 0.35 )))
  ((( 0.5 0.25 0.0 0.25 )
  ( 0.5 0.25 0.0 0.25 ))
  (( 0.649999974000001 0.1999999920000003 0.0 0.15000003399999862 )
  ( 0.649999974000001 0.1999999920000003 0.0 0.15000003399999862 ))))
  (((( 0.45 0.2 0.0 0.35 )
  ( 0.45 0.2 0.0 0.35 ))
  (( 0.45 0.2 0.0 0.35 )
  ( 0.45 0.2 0.0 0.35 )))
  ((( 0.5 0.25 0.0 0.25 )
  ( 0.5 0.25 0.0 0.25 ))
  (( 0.649999974000001 0.1999999920000003 0.0 0.15000003399999862 )
  ( 0.649999974000001 0.1999999920000003 0.0 0.15000003399999862 ))))))));
}
potential ( SURGERY | )
{
 data = ( 0.7 0.25 0.05 );
}
potential ( THERAPY_ADJUSTMENT | BM_DEPRESSION PERFORATION HEMORRHAGE )
{
 data = (((( 1.0 0.0 )
  ( 0.5 0.5 ))
  (( 0.0 1.0 )
  ( 0.0 1.0 )))
  ((( 0.0 1.0 )
  ( 0.0 1.0 ))
  (( 0.0 1.0 )
  ( 0.0 1.0 ))));
}
potential ( CT_RT_SCHEDULE | )
{
 data = ( 0.15 0.35 0.25 0.25 );
}
potential ( POST_CT_RT_SURVIVAL | PERFORATION HEMORRHAGE )
{
 data = ((( 0.0 1.0 )
  ( 0.1 0.9 ))
  (( 0.2 0.8 )
  ( 0.24999998500000087 0.750000014999999 )));
}
potential ( HISTOLOGICAL_CLASSIFICATION | AGE )
{
 data = (( 0.4 0.6 )
  ( 0.4 0.6 )
  ( 0.6 0.4 )
  ( 0.7 0.3 )
  ( 0.6 0.4 )
  ( 0.6 0.4 )
  ( 0.6 0.4 )
  ( 0.4 0.6 )
  ( 0.4 0.6 )
  ( 0.3000000279999989 0.6999999720000011 )
  ( 0.3 0.7 )
  ( 0.3 0.7 ));
}
potential ( ERADICATION | HELICOBACTER_TREATMENT HELICOBACTER_PYLORI )
{
 data = ((( 0.0 1.0 )
  ( 1.0 0.0 ))
  (( 0.0 1.0 )
  ( 0.0 1.0 )));
}
potential ( HEMORRHAGE | CT_RT_SCHEDULE )
{
 data = (( 0.9799999902000002 0.020000009799999902 )
  ( 0.95 0.05 )
  ( 0.9300000279000008 0.06999997209999916 )
  ( 0.8799999648000014 0.12000003519999859 ));
}
potential ( BULKY_DISEASE | AGE HISTOLOGICAL_CLASSIFICATION CLINICAL_STAGE )
{
 data = (((( 0.4 0.6 )
  ( 0.29999998500000075 0.7000000149999993 )
  ( 0.34999998600000054 0.6500000139999994 )
  ( 0.25 0.75 )
  ( 0.25 0.75 ))
  (( 0.7 0.3 )
  ( 0.6999999720000011 0.3000000279999989 )
  ( 0.7499999775000007 0.2500000224999993 )
  ( 0.6 0.4 )
  ( 0.6 0.4 )))
  ((( 0.29999998500000075 0.7000000149999993 )
  ( 0.29999998500000075 0.7000000149999993 )
  ( 0.34999998600000054 0.6500000139999994 )
  ( 0.15 0.85 )
  ( 0.15 0.85 ))
  (( 0.5 0.5 )
  ( 0.55 0.45 )
  ( 0.75 0.25 )
  ( 0.6 0.4 )
  ( 0.6 0.4 )))
  ((( 0.2 0.8 )
  ( 0.24999998500000087 0.750000014999999 )
  ( 0.5 0.5 )
  ( 0.05000000949999991 0.9499999905000001 )
  ( 0.05000000949999991 0.9499999905000001 ))
  (( 0.34999998600000054 0.6500000139999994 )
  ( 0.34999998600000054 0.6500000139999994 )
  ( 0.6 0.4 )
  ( 0.5 0.5 )
  ( 0.5 0.5 )))
  ((( 0.1 0.9 )
  ( 0.2 0.8 )
  ( 0.5 0.5 )
  ( 0.05000000949999991 0.9499999905000001 )
  ( 0.05000000949999991 0.9499999905000001 ))
  (( 0.25 0.75 )
  ( 0.29999998500000075 0.7000000149999993 )
  ( 0.55 0.45 )
  ( 0.4 0.6 )
  ( 0.4 0.6 )))
  ((( 0.1 0.9 )
  ( 0.2 0.8 )
  ( 0.5 0.5 )
  ( 0.05000000949999991 0.9499999905000001 )
  ( 0.05000000949999991 0.9499999905000001 ))
  (( 0.2 0.8 )
  ( 0.24999998500000087 0.750000014999999 )
  ( 0.55 0.45 )
  ( 0.4 0.6 )
  ( 0.4 0.6 )))
  ((( 0.1 0.9 )
  ( 0.2 0.8 )
  ( 0.5 0.5 )
  ( 0.05000000949999991 0.9499999905000001 )
  ( 0.05000000949999991 0.9499999905000001 ))
  (( 0.2 0.8 )
  ( 0.24999998500000087 0.750000014999999 )
  ( 0.5 0.5 )
  ( 0.4 0.6 )
  ( 0.4 0.6 )))
  ((( 0.1 0.9 )
  ( 0.2 0.8 )
  ( 0.55 0.45 )
  ( 0.05000000949999991 0.9499999905000001 )
  ( 0.05000000949999991 0.9499999905000001 ))
  (( 0.2 0.8 )
  ( 0.24999998500000087 0.750000014999999 )
  ( 0.5 0.5 )
  ( 0.4 0.6 )
  ( 0.4 0.6 )))
  ((( 0.2 0.8 )
  ( 0.24999998500000087 0.750000014999999 )
  ( 0.55 0.45 )
  ( 0.1 0.9 )
  ( 0.1 0.9 ))
  (( 0.25 0.75 )
  ( 0.29999998500000075 0.7000000149999993 )
  ( 0.55 0.45 )
  ( 0.5 0.5 )
  ( 0.5 0.5 )))
  ((( 0.24999998500000087 0.750000014999999 )
  ( 0.29999998500000075 0.7000000149999993 )
  ( 0.6 0.4 )
  ( 0.2 0.8 )
  ( 0.2 0.8 ))
  (( 0.25 0.75 )
  ( 0.34999998600000054 0.6500000139999994 )
  ( 0.55 0.45 )
  ( 0.6 0.4 )
  ( 0.6 0.4 )))
  ((( 0.29999998500000075 0.7000000149999993 )
  ( 0.34999998600000054 0.6500000139999994 )
  ( 0.6499999675000016 0.35000003249999834 )
  ( 0.3 0.7 )
  ( 0.3 0.7 ))
  (( 0.25 0.75 )
  ( 0.34999998600000054 0.6500000139999994 )
  ( 0.6499999675000016 0.35000003249999834 )
  ( 0.6999999720000011 0.3000000279999989 )
  ( 0.6999999720000011 0.3000000279999989 )))
  ((( 0.29999998500000075 0.7000000149999993 )
  ( 0.34999998600000054 0.6500000139999994 )
  ( 0.6999999720000011 0.3000000279999989 )
  ( 0.4 0.6 )
  ( 0.4 0.6 ))
  (( 0.3 0.7 )
  ( 0.4 0.6 )
  ( 0.6999999720000011 0.3000000279999989 )
  ( 0.6999999720000011 0.3000000279999989 )
  ( 0.6999999720000011 0.3000000279999989 )))
  ((( 0.29999998500000075 0.7000000149999993 )
  ( 0.34999998600000054 0.6500000139999994 )
  ( 0.6999999720000011 0.3000000279999989 )
  ( 0.4 0.6 )
  ( 0.4 0.6 ))
  (( 0.3 0.7 )
  ( 0.4 0.6 )
  ( 0.6999999720000011 0.3000000279999989 )
  ( 0.6999999720000011 0.3000000279999989 )
  ( 0.7 0.3 ))));
}
potential ( PERFORATION | CT_RT_SCHEDULE )
{
 data = (( 0.99 0.01 )
  ( 0.9700000388000015 0.029999961199998447 )
  ( 0.9500000095000001 0.04999999049999991 )
  ( 0.9199999908000002 0.0800000091999999 ));
}
potential ( IMMEDIATE_SURVIVAL | POST_CT_RT_SURVIVAL POST_SURGICAL_SURVIVAL )
{
 data = ((( 1.0 0.0 )
  ( 1.0 0.0 ))
  (( 1.0 0.0 )
  ( 0.0 1.0 )));
}
potential ( GENERAL_HEALTH_STATUS | AGE )
{
 data = (( 0.0020 0.0080 0.99 )
  ( 0.0050 0.01 0.985 )
  ( 0.01 0.01 0.98 )
  ( 0.01 0.02 0.97 )
  ( 0.03 0.07 0.9 )
  ( 0.04 0.08 0.88 )
  ( 0.05 0.1 0.85 )
  ( 0.1 0.2 0.7 )
  ( 0.15 0.25 0.6 )
  ( 0.2000000100000005 0.5000000250000013 0.29999996499999826 )
  ( 0.39999999200000014 0.49999999000000017 0.10000001799999962 )
  ( 0.600000006 0.300000003 0.09999999099999991 ));
}
potential ( FIVE_YEAR_RESULT | EARLY_RESULT AGE CLINICAL_STAGE BULKY_DISEASE HISTOLOGICAL_CLASSIFICATION IMMEDIATE_SURVIVAL )
{
 data = ((((((( 0.0 1.0 )
  ( 0.8999999820000003 0.10000001799999962 ))
  (( 0.0 1.0 )
  ( 0.8 0.2 )))
  ((( 0.0 1.0 )
  ( 0.9499999905000001 0.05000000949999991 ))
  (( 0.0 1.0 )
  ( 0.8500000170000003 0.14999998299999967 ))))
  (((( 0.0 1.0 )
  ( 0.8500000170000003 0.14999998299999967 ))
  (( 0.0 1.0 )
  ( 0.75 0.25 )))
  ((( 0.0 1.0 )
  ( 0.9499999905000001 0.05000000949999991 ))
  (( 0.0 1.0 )
  ( 0.8 0.2 ))))
  (((( 0.0 1.0 )
  ( 0.6 0.4 ))
  (( 0.0 1.0 )
  ( 0.5 0.5 )))
  ((( 0.0 1.0 )
  ( 0.8 0.2 ))
  (( 0.0 1.0 )
  ( 0.6 0.4 ))))
  (((( 0.0 1.0 )
  ( 0.4 0.6 ))
  (( 0.0 1.0 )
  ( 0.4 0.6 )))
  ((( 0.0 1.0 )
  ( 0.6 0.4 ))
  (( 0.0 1.0 )
  ( 0.5 0.5 ))))
  (((( 0.0 1.0 )
  ( 0.4 0.6 ))
  (( 0.0 1.0 )
  ( 0.4 0.6 )))
  ((( 0.0 1.0 )
  ( 0.6 0.4 ))
  (( 0.0 1.0 )
  ( 0.5 0.5 )))))
  ((((( 0.0 1.0 )
  ( 0.8999999820000003 0.10000001799999962 ))
  (( 0.0 1.0 )
  ( 0.8 0.2 )))
  ((( 0.0 1.0 )
  ( 0.9499999905000001 0.05000000949999991 ))
  (( 0.0 1.0 )
  ( 0.8500000170000003 0.14999998299999967 ))))
  (((( 0.0 1.0 )
  ( 0.8500000170000003 0.14999998299999967 ))
  (( 0.0 1.0 )
  ( 0.75 0.25 )))
  ((( 0.0 1.0 )
  ( 0.9499999905000001 0.05000000949999991 ))
  (( 0.0 1.0 )
  ( 0.8 0.2 ))))
  (((( 0.0 1.0 )
  ( 0.6 0.4 ))
  (( 0.0 1.0 )
  ( 0.5 0.5 )))
  ((( 0.0 1.0 )
  ( 0.8 0.2 ))
  (( 0.0 1.0 )
  ( 0.6 0.4 ))))
  (((( 0.0 1.0 )
  ( 0.4 0.6 ))
  (( 0.0 1.0 )
  ( 0.4 0.6 )))
  ((( 0.0 1.0 )
  ( 0.6 0.4 ))
  (( 0.0 1.0 )
  ( 0.5 0.5 ))))
  (((( 0.0 1.0 )
  ( 0.4 0.6 ))
  (( 0.0 1.0 )
  ( 0.4 0.6 )))
  ((( 0.0 1.0 )
  ( 0.6 0.4 ))
  (( 0.0 1.0 )
  ( 0.5 0.5 )))))
  ((((( 0.0 1.0 )
  ( 0.8999999820000003 0.10000001799999962 ))
  (( 0.0 1.0 )
  ( 0.8 0.2 )))
  ((( 0.0 1.0 )
  ( 0.9499999905000001 0.05000000949999991 ))
  (( 0.0 1.0 )
  ( 0.8500000170000003 0.14999998299999967 ))))
  (((( 0.0 1.0 )
  ( 0.8500000170000003 0.14999998299999967 ))
  (( 0.0 1.0 )
  ( 0.75 0.25 )))
  ((( 0.0 1.0 )
  ( 0.9499999905000001 0.05000000949999991 ))
  (( 0.0 1.0 )
  ( 0.8 0.2 ))))
  (((( 0.0 1.0 )
  ( 0.6 0.4 ))
  (( 0.0 1.0 )
  ( 0.5 0.5 )))
  ((( 0.0 1.0 )
  ( 0.8 0.2 ))
  (( 0.0 1.0 )
  ( 0.6 0.4 ))))
  (((( 0.0 1.0 )
  ( 0.4 0.6 ))
  (( 0.0 1.0 )
  ( 0.4 0.6 )))
  ((( 0.0 1.0 )
  ( 0.6 0.4 ))
  (( 0.0 1.0 )
  ( 0.5 0.5 ))))
  (((( 0.0 1.0 )
  ( 0.4 0.6 ))
  (( 0.0 1.0 )
  ( 0.4 0.6 )))
  ((( 0.0 1.0 )
  ( 0.6 0.4 ))
  (( 0.0 1.0 )
  ( 0.5 0.5 )))))
  ((((( 0.0 1.0 )
  ( 0.8999999820000003 0.10000001799999962 ))
  (( 0.0 1.0 )
  ( 0.8 0.2 )))
  ((( 0.0 1.0 )
  ( 0.9499999905000001 0.05000000949999991 ))
  (( 0.0 1.0 )
  ( 0.8500000170000003 0.14999998299999967 ))))
  (((( 0.0 1.0 )
  ( 0.8500000170000003 0.14999998299999967 ))
  (( 0.0 1.0 )
  ( 0.75 0.25 )))
  ((( 0.0 1.0 )
  ( 0.9499999905000001 0.05000000949999991 ))
  (( 0.0 1.0 )
  ( 0.8 0.2 ))))
  (((( 0.0 1.0 )
  ( 0.6 0.4 ))
  (( 0.0 1.0 )
  ( 0.5 0.5 )))
  ((( 0.0 1.0 )
  ( 0.8 0.2 ))
  (( 0.0 1.0 )
  ( 0.6 0.4 ))))
  (((( 0.0 1.0 )
  ( 0.4 0.6 ))
  (( 0.0 1.0 )
  ( 0.4 0.6 )))
  ((( 0.0 1.0 )
  ( 0.6 0.4 ))
  (( 0.0 1.0 )
  ( 0.5 0.5 ))))
  (((( 0.0 1.0 )
  ( 0.4 0.6 ))
  (( 0.0 1.0 )
  ( 0.4 0.6 )))
  ((( 0.0 1.0 )
  ( 0.6 0.4 ))
  (( 0.0 1.0 )
  ( 0.5 0.5 )))))
  ((((( 0.0 1.0 )
  ( 0.8999999820000003 0.10000001799999962 ))
  (( 0.0 1.0 )
  ( 0.8 0.2 )))
  ((( 0.0 1.0 )
  ( 0.9499999905000001 0.05000000949999991 ))
  (( 0.0 1.0 )
  ( 0.8500000170000003 0.14999998299999967 ))))
  (((( 0.0 1.0 )
  ( 0.8500000170000003 0.14999998299999967 ))
  (( 0.0 1.0 )
  ( 0.75 0.25 )))
  ((( 0.0 1.0 )
  ( 0.9499999905000001 0.05000000949999991 ))
  (( 0.0 1.0 )
  ( 0.8 0.2 ))))
  (((( 0.0 1.0 )
  ( 0.6 0.4 ))
  (( 0.0 1.0 )
  ( 0.5 0.5 )))
  ((( 0.0 1.0 )
  ( 0.8 0.2 ))
  (( 0.0 1.0 )
  ( 0.6 0.4 ))))
  (((( 0.0 1.0 )
  ( 0.4 0.6 ))
  (( 0.0 1.0 )
  ( 0.4 0.6 )))
  ((( 0.0 1.0 )
  ( 0.6 0.4 ))
  (( 0.0 1.0 )
  ( 0.5 0.5 ))))
  (((( 0.0 1.0 )
  ( 0.4 0.6 ))
  (( 0.0 1.0 )
  ( 0.4 0.6 )))
  ((( 0.0 1.0 )
  ( 0.6 0.4 ))
  (( 0.0 1.0 )
  ( 0.5 0.5 )))))
  ((((( 0.0 1.0 )
  ( 0.8999999820000003 0.10000001799999962 ))
  (( 0.0 1.0 )
  ( 0.8 0.2 )))
  ((( 0.0 1.0 )
  ( 0.9499999905000001 0.05000000949999991 ))
  (( 0.0 1.0 )
  ( 0.8500000170000003 0.14999998299999967 ))))
  (((( 0.0 1.0 )
  ( 0.8500000170000003 0.14999998299999967 ))
  (( 0.0 1.0 )
  ( 0.75 0.25 )))
  ((( 0.0 1.0 )
  ( 0.9499999905000001 0.05000000949999991 ))
  (( 0.0 1.0 )
  ( 0.8 0.2 ))))
  (((( 0.0 1.0 )
  ( 0.6 0.4 ))
  (( 0.0 1.0 )
  ( 0.5 0.5 )))
  ((( 0.0 1.0 )
  ( 0.8 0.2 ))
  (( 0.0 1.0 )
  ( 0.6 0.4 ))))
  (((( 0.0 1.0 )
  ( 0.4 0.6 ))
  (( 0.0 1.0 )
  ( 0.4 0.6 )))
  ((( 0.0 1.0 )
  ( 0.6 0.4 ))
  (( 0.0 1.0 )
  ( 0.5 0.5 ))))
  (((( 0.0 1.0 )
  ( 0.4 0.6 ))
  (( 0.0 1.0 )
  ( 0.4 0.6 )))
  ((( 0.0 1.0 )
  ( 0.6 0.4 ))
  (( 0.0 1.0 )
  ( 0.5 0.5 )))))
  ((((( 0.0 1.0 )
  ( 0.8999999820000003 0.10000001799999962 ))
  (( 0.0 1.0 )
  ( 0.8 0.2 )))
  ((( 0.0 1.0 )
  ( 0.9499999905000001 0.05000000949999991 ))
  (( 0.0 1.0 )
  ( 0.8500000170000003 0.14999998299999967 ))))
  (((( 0.0 1.0 )
  ( 0.8500000170000003 0.14999998299999967 ))
  (( 0.0 1.0 )
  ( 0.75 0.25 )))
  ((( 0.0 1.0 )
  ( 0.9499999905000001 0.05000000949999991 ))
  (( 0.0 1.0 )
  ( 0.8 0.2 ))))
  (((( 0.0 1.0 )
  ( 0.6 0.4 ))
  (( 0.0 1.0 )
  ( 0.5 0.5 )))
  ((( 0.0 1.0 )
  ( 0.8 0.2 ))
  (( 0.0 1.0 )
  ( 0.6 0.4 ))))
  (((( 0.0 1.0 )
  ( 0.4 0.6 ))
  (( 0.0 1.0 )
  ( 0.4 0.6 )))
  ((( 0.0 1.0 )
  ( 0.6 0.4 ))
  (( 0.0 1.0 )
  ( 0.5 0.5 ))))
  (((( 0.0 1.0 )
  ( 0.4 0.6 ))
  (( 0.0 1.0 )
  ( 0.4 0.6 )))
  ((( 0.0 1.0 )
  ( 0.6 0.4 ))
  (( 0.0 1.0 )
  ( 0.5 0.5 )))))
  ((((( 0.0 1.0 )
  ( 0.8999999820000003 0.10000001799999962 ))
  (( 0.0 1.0 )
  ( 0.8 0.2 )))
  ((( 0.0 1.0 )
  ( 0.9499999905000001 0.05000000949999991 ))
  (( 0.0 1.0 )
  ( 0.8500000170000003 0.14999998299999967 ))))
  (((( 0.0 1.0 )
  ( 0.8500000170000003 0.14999998299999967 ))
  (( 0.0 1.0 )
  ( 0.75 0.25 )))
  ((( 0.0 1.0 )
  ( 0.9499999905000001 0.05000000949999991 ))
  (( 0.0 1.0 )
  ( 0.8 0.2 ))))
  (((( 0.0 1.0 )
  ( 0.6 0.4 ))
  (( 0.0 1.0 )
  ( 0.5 0.5 )))
  ((( 0.0 1.0 )
  ( 0.8 0.2 ))
  (( 0.0 1.0 )
  ( 0.6 0.4 ))))
  (((( 0.0 1.0 )
  ( 0.4 0.6 ))
  (( 0.0 1.0 )
  ( 0.4 0.6 )))
  ((( 0.0 1.0 )
  ( 0.6 0.4 ))
  (( 0.0 1.0 )
  ( 0.5 0.5 ))))
  (((( 0.0 1.0 )
  ( 0.4 0.6 ))
  (( 0.0 1.0 )
  ( 0.4 0.6 )))
  ((( 0.0 1.0 )
  ( 0.6 0.4 ))
  (( 0.0 1.0 )
  ( 0.5 0.5 )))))
  ((((( 0.0 1.0 )
  ( 0.8999999820000003 0.10000001799999962 ))
  (( 0.0 1.0 )
  ( 0.8 0.2 )))
  ((( 0.0 1.0 )
  ( 0.9499999905000001 0.05000000949999991 ))
  (( 0.0 1.0 )
  ( 0.8500000170000003 0.14999998299999967 ))))
  (((( 0.0 1.0 )
  ( 0.8500000170000003 0.14999998299999967 ))
  (( 0.0 1.0 )
  ( 0.75 0.25 )))
  ((( 0.0 1.0 )
  ( 0.9499999905000001 0.05000000949999991 ))
  (( 0.0 1.0 )
  ( 0.8 0.2 ))))
  (((( 0.0 1.0 )
  ( 0.6 0.4 ))
  (( 0.0 1.0 )
  ( 0.5 0.5 )))
  ((( 0.0 1.0 )
  ( 0.8 0.2 ))
  (( 0.0 1.0 )
  ( 0.6 0.4 ))))
  (((( 0.0 1.0 )
  ( 0.4 0.6 ))
  (( 0.0 1.0 )
  ( 0.4 0.6 )))
  ((( 0.0 1.0 )
  ( 0.6 0.4 ))
  (( 0.0 1.0 )
  ( 0.5 0.5 ))))
  (((( 0.0 1.0 )
  ( 0.4 0.6 ))
  (( 0.0 1.0 )
  ( 0.4 0.6 )))
  ((( 0.0 1.0 )
  ( 0.6 0.4 ))
  (( 0.0 1.0 )
  ( 0.5 0.5 )))))
  ((((( 0.0 1.0 )
  ( 0.8499999660000014 0.15000003399999864 ))
  (( 0.0 1.0 )
  ( 0.75 0.25 )))
  ((( 0.0 1.0 )
  ( 0.8999999820000003 0.10000001799999962 ))
  (( 0.0 1.0 )
  ( 0.8 0.2 ))))
  (((( 0.0 1.0 )
  ( 0.8 0.2 ))
  (( 0.0 1.0 )
  ( 0.7 0.3 )))
  ((( 0.0 1.0 )
  ( 0.8999999820000003 0.10000001799999962 ))
  (( 0.0 1.0 )
  ( 0.75 0.25 ))))
  (((( 0.0 1.0 )
  ( 0.55 0.45 ))
  (( 0.0 1.0 )
  ( 0.45 0.55 )))
  ((( 0.0 1.0 )
  ( 0.75 0.25 ))
  (( 0.0 1.0 )
  ( 0.55 0.45 ))))
  (((( 0.0 1.0 )
  ( 0.35 0.65 ))
  (( 0.0 1.0 )
  ( 0.35 0.65 )))
  ((( 0.0 1.0 )
  ( 0.55 0.45 ))
  (( 0.0 1.0 )
  ( 0.45 0.55 ))))
  (((( 0.0 1.0 )
  ( 0.35 0.65 ))
  (( 0.0 1.0 )
  ( 0.35 0.65 )))
  ((( 0.0 1.0 )
  ( 0.55 0.45 ))
  (( 0.0 1.0 )
  ( 0.45 0.55 )))))
  ((((( 0.0 1.0 )
  ( 0.8499999660000014 0.15000003399999864 ))
  (( 0.0 1.0 )
  ( 0.75 0.25 )))
  ((( 0.0 1.0 )
  ( 0.8999999820000003 0.10000001799999962 ))
  (( 0.0 1.0 )
  ( 0.8 0.2 ))))
  (((( 0.0 1.0 )
  ( 0.8 0.2 ))
  (( 0.0 1.0 )
  ( 0.7 0.3 )))
  ((( 0.0 1.0 )
  ( 0.8999999820000003 0.10000001799999962 ))
  (( 0.0 1.0 )
  ( 0.75 0.25 ))))
  (((( 0.0 1.0 )
  ( 0.55 0.45 ))
  (( 0.0 1.0 )
  ( 0.45 0.55 )))
  ((( 0.0 1.0 )
  ( 0.75 0.25 ))
  (( 0.0 1.0 )
  ( 0.55 0.45 ))))
  (((( 0.0 1.0 )
  ( 0.35 0.65 ))
  (( 0.0 1.0 )
  ( 0.35 0.65 )))
  ((( 0.0 1.0 )
  ( 0.55 0.45 ))
  (( 0.0 1.0 )
  ( 0.45 0.55 ))))
  (((( 0.0 1.0 )
  ( 0.35 0.65 ))
  (( 0.0 1.0 )
  ( 0.35 0.65 )))
  ((( 0.0 1.0 )
  ( 0.55 0.45 ))
  (( 0.0 1.0 )
  ( 0.45 0.55 )))))
  ((((( 0.0 1.0 )
  ( 0.8499999660000014 0.15000003399999864 ))
  (( 0.0 1.0 )
  ( 0.75 0.25 )))
  ((( 0.0 1.0 )
  ( 0.8999999820000003 0.10000001799999962 ))
  (( 0.0 1.0 )
  ( 0.8 0.2 ))))
  (((( 0.0 1.0 )
  ( 0.8 0.2 ))
  (( 0.0 1.0 )
  ( 0.7 0.3 )))
  ((( 0.0 1.0 )
  ( 0.8999999820000003 0.10000001799999962 ))
  (( 0.0 1.0 )
  ( 0.75 0.25 ))))
  (((( 0.0 1.0 )
  ( 0.55 0.45 ))
  (( 0.0 1.0 )
  ( 0.45 0.55 )))
  ((( 0.0 1.0 )
  ( 0.75 0.25 ))
  (( 0.0 1.0 )
  ( 0.55 0.45 ))))
  (((( 0.0 1.0 )
  ( 0.35 0.65 ))
  (( 0.0 1.0 )
  ( 0.35 0.65 )))
  ((( 0.0 1.0 )
  ( 0.55 0.45 ))
  (( 0.0 1.0 )
  ( 0.45 0.55 ))))
  (((( 0.0 1.0 )
  ( 0.35 0.65 ))
  (( 0.0 1.0 )
  ( 0.35 0.65 )))
  ((( 0.0 1.0 )
  ( 0.55 0.45 ))
  (( 0.0 1.0 )
  ( 0.45 0.55 ))))))
  (((((( 0.0 1.0 )
  ( 0.5 0.5 ))
  (( 0.0 1.0 )
  ( 0.2 0.8 )))
  ((( 0.0 1.0 )
  ( 0.75 0.25 ))
  (( 0.0 1.0 )
  ( 0.4 0.6 ))))
  (((( 0.0 1.0 )
  ( 0.5 0.5 ))
  (( 0.0 1.0 )
  ( 0.2 0.8 )))
  ((( 0.0 1.0 )
  ( 0.75 0.25 ))
  (( 0.0 1.0 )
  ( 0.4 0.6 ))))
  (((( 0.0 1.0 )
  ( 0.15 0.85 ))
  (( 0.0 1.0 )
  ( 0.1 0.9 )))
  ((( 0.0 1.0 )
  ( 0.25 0.75 ))
  (( 0.0 1.0 )
  ( 0.5 0.5 ))))
  (((( 0.0 1.0 )
  ( 0.15 0.85 ))
  (( 0.0 1.0 )
  ( 0.1 0.9 )))
  ((( 0.0 1.0 )
  ( 0.25 0.75 ))
  (( 0.0 1.0 )
  ( 0.5 0.5 ))))
  (((( 0.0 1.0 )
  ( 0.15 0.85 ))
  (( 0.0 1.0 )
  ( 0.1 0.9 )))
  ((( 0.0 1.0 )
  ( 0.25 0.75 ))
  (( 0.0 1.0 )
  ( 0.5 0.5 )))))
  ((((( 0.0 1.0 )
  ( 0.5 0.5 ))
  (( 0.0 1.0 )
  ( 0.2 0.8 )))
  ((( 0.0 1.0 )
  ( 0.75 0.25 ))
  (( 0.0 1.0 )
  ( 0.4 0.6 ))))
  (((( 0.0 1.0 )
  ( 0.5 0.5 ))
  (( 0.0 1.0 )
  ( 0.2 0.8 )))
  ((( 0.0 1.0 )
  ( 0.75 0.25 ))
  (( 0.0 1.0 )
  ( 0.4 0.6 ))))
  (((( 0.0 1.0 )
  ( 0.15 0.85 ))
  (( 0.0 1.0 )
  ( 0.1 0.9 )))
  ((( 0.0 1.0 )
  ( 0.25 0.75 ))
  (( 0.0 1.0 )
  ( 0.5 0.5 ))))
  (((( 0.0 1.0 )
  ( 0.15 0.85 ))
  (( 0.0 1.0 )
  ( 0.1 0.9 )))
  ((( 0.0 1.0 )
  ( 0.25 0.75 ))
  (( 0.0 1.0 )
  ( 0.5 0.5 ))))
  (((( 0.0 1.0 )
  ( 0.15 0.85 ))
  (( 0.0 1.0 )
  ( 0.1 0.9 )))
  ((( 0.0 1.0 )
  ( 0.25 0.75 ))
  (( 0.0 1.0 )
  ( 0.5 0.5 )))))
  ((((( 0.0 1.0 )
  ( 0.5 0.5 ))
  (( 0.0 1.0 )
  ( 0.2 0.8 )))
  ((( 0.0 1.0 )
  ( 0.75 0.25 ))
  (( 0.0 1.0 )
  ( 0.4 0.6 ))))
  (((( 0.0 1.0 )
  ( 0.5 0.5 ))
  (( 0.0 1.0 )
  ( 0.2 0.8 )))
  ((( 0.0 1.0 )
  ( 0.75 0.25 ))
  (( 0.0 1.0 )
  ( 0.4 0.6 ))))
  (((( 0.0 1.0 )
  ( 0.15 0.85 ))
  (( 0.0 1.0 )
  ( 0.1 0.9 )))
  ((( 0.0 1.0 )
  ( 0.25 0.75 ))
  (( 0.0 1.0 )
  ( 0.5 0.5 ))))
  (((( 0.0 1.0 )
  ( 0.15 0.85 ))
  (( 0.0 1.0 )
  ( 0.1 0.9 )))
  ((( 0.0 1.0 )
  ( 0.25 0.75 ))
  (( 0.0 1.0 )
  ( 0.5 0.5 ))))
  (((( 0.0 1.0 )
  ( 0.15 0.85 ))
  (( 0.0 1.0 )
  ( 0.1 0.9 )))
  ((( 0.0 1.0 )
  ( 0.25 0.75 ))
  (( 0.0 1.0 )
  ( 0.5 0.5 )))))
  ((((( 0.0 1.0 )
  ( 0.5 0.5 ))
  (( 0.0 1.0 )
  ( 0.2 0.8 )))
  ((( 0.0 1.0 )
  ( 0.75 0.25 ))
  (( 0.0 1.0 )
  ( 0.4 0.6 ))))
  (((( 0.0 1.0 )
  ( 0.5 0.5 ))
  (( 0.0 1.0 )
  ( 0.2 0.8 )))
  ((( 0.0 1.0 )
  ( 0.75 0.25 ))
  (( 0.0 1.0 )
  ( 0.4 0.6 ))))
  (((( 0.0 1.0 )
  ( 0.15 0.85 ))
  (( 0.0 1.0 )
  ( 0.1 0.9 )))
  ((( 0.0 1.0 )
  ( 0.25 0.75 ))
  (( 0.0 1.0 )
  ( 0.5 0.5 ))))
  (((( 0.0 1.0 )
  ( 0.15 0.85 ))
  (( 0.0 1.0 )
  ( 0.1 0.9 )))
  ((( 0.0 1.0 )
  ( 0.25 0.75 ))
  (( 0.0 1.0 )
  ( 0.5 0.5 ))))
  (((( 0.0 1.0 )
  ( 0.15 0.85 ))
  (( 0.0 1.0 )
  ( 0.1 0.9 )))
  ((( 0.0 1.0 )
  ( 0.25 0.75 ))
  (( 0.0 1.0 )
  ( 0.5 0.5 )))))
  ((((( 0.0 1.0 )
  ( 0.5 0.5 ))
  (( 0.0 1.0 )
  ( 0.2 0.8 )))
  ((( 0.0 1.0 )
  ( 0.75 0.25 ))
  (( 0.0 1.0 )
  ( 0.4 0.6 ))))
  (((( 0.0 1.0 )
  ( 0.5 0.5 ))
  (( 0.0 1.0 )
  ( 0.2 0.8 )))
  ((( 0.0 1.0 )
  ( 0.75 0.25 ))
  (( 0.0 1.0 )
  ( 0.4 0.6 ))))
  (((( 0.0 1.0 )
  ( 0.15 0.85 ))
  (( 0.0 1.0 )
  ( 0.1 0.9 )))
  ((( 0.0 1.0 )
  ( 0.25 0.75 ))
  (( 0.0 1.0 )
  ( 0.5 0.5 ))))
  (((( 0.0 1.0 )
  ( 0.15 0.85 ))
  (( 0.0 1.0 )
  ( 0.1 0.9 )))
  ((( 0.0 1.0 )
  ( 0.25 0.75 ))
  (( 0.0 1.0 )
  ( 0.5 0.5 ))))
  (((( 0.0 1.0 )
  ( 0.15 0.85 ))
  (( 0.0 1.0 )
  ( 0.1 0.9 )))
  ((( 0.0 1.0 )
  ( 0.25 0.75 ))
  (( 0.0 1.0 )
  ( 0.5 0.5 )))))
  ((((( 0.0 1.0 )
  ( 0.5 0.5 ))
  (( 0.0 1.0 )
  ( 0.2 0.8 )))
  ((( 0.0 1.0 )
  ( 0.75 0.25 ))
  (( 0.0 1.0 )
  ( 0.4 0.6 ))))
  (((( 0.0 1.0 )
  ( 0.5 0.5 ))
  (( 0.0 1.0 )
  ( 0.2 0.8 )))
  ((( 0.0 1.0 )
  ( 0.75 0.25 ))
  (( 0.0 1.0 )
  ( 0.4 0.6 ))))
  (((( 0.0 1.0 )
  ( 0.15 0.85 ))
  (( 0.0 1.0 )
  ( 0.1 0.9 )))
  ((( 0.0 1.0 )
  ( 0.25 0.75 ))
  (( 0.0 1.0 )
  ( 0.5 0.5 ))))
  (((( 0.0 1.0 )
  ( 0.15 0.85 ))
  (( 0.0 1.0 )
  ( 0.1 0.9 )))
  ((( 0.0 1.0 )
  ( 0.25 0.75 ))
  (( 0.0 1.0 )
  ( 0.5 0.5 ))))
  (((( 0.0 1.0 )
  ( 0.15 0.85 ))
  (( 0.0 1.0 )
  ( 0.1 0.9 )))
  ((( 0.0 1.0 )
  ( 0.25 0.75 ))
  (( 0.0 1.0 )
  ( 0.5 0.5 )))))
  ((((( 0.0 1.0 )
  ( 0.5 0.5 ))
  (( 0.0 1.0 )
  ( 0.2 0.8 )))
  ((( 0.0 1.0 )
  ( 0.75 0.25 ))
  (( 0.0 1.0 )
  ( 0.4 0.6 ))))
  (((( 0.0 1.0 )
  ( 0.5 0.5 ))
  (( 0.0 1.0 )
  ( 0.2 0.8 )))
  ((( 0.0 1.0 )
  ( 0.75 0.25 ))
  (( 0.0 1.0 )
  ( 0.4 0.6 ))))
  (((( 0.0 1.0 )
  ( 0.15 0.85 ))
  (( 0.0 1.0 )
  ( 0.1 0.9 )))
  ((( 0.0 1.0 )
  ( 0.25 0.75 ))
  (( 0.0 1.0 )
  ( 0.5 0.5 ))))
  (((( 0.0 1.0 )
  ( 0.15 0.85 ))
  (( 0.0 1.0 )
  ( 0.1 0.9 )))
  ((( 0.0 1.0 )
  ( 0.25 0.75 ))
  (( 0.0 1.0 )
  ( 0.5 0.5 ))))
  (((( 0.0 1.0 )
  ( 0.15 0.85 ))
  (( 0.0 1.0 )
  ( 0.1 0.9 )))
  ((( 0.0 1.0 )
  ( 0.25 0.75 ))
  (( 0.0 1.0 )
  ( 0.5 0.5 )))))
  ((((( 0.0 1.0 )
  ( 0.5 0.5 ))
  (( 0.0 1.0 )
  ( 0.2 0.8 )))
  ((( 0.0 1.0 )
  ( 0.75 0.25 ))
  (( 0.0 1.0 )
  ( 0.4 0.6 ))))
  (((( 0.0 1.0 )
  ( 0.5 0.5 ))
  (( 0.0 1.0 )
  ( 0.2 0.8 )))
  ((( 0.0 1.0 )
  ( 0.75 0.25 ))
  (( 0.0 1.0 )
  ( 0.4 0.6 ))))
  (((( 0.0 1.0 )
  ( 0.15 0.85 ))
  (( 0.0 1.0 )
  ( 0.1 0.9 )))
  ((( 0.0 1.0 )
  ( 0.25 0.75 ))
  (( 0.0 1.0 )
  ( 0.5 0.5 ))))
  (((( 0.0 1.0 )
  ( 0.15 0.85 ))
  (( 0.0 1.0 )
  ( 0.1 0.9 )))
  ((( 0.0 1.0 )
  ( 0.25 0.75 ))
  (( 0.0 1.0 )
  ( 0.5 0.5 ))))
  (((( 0.0 1.0 )
  ( 0.15 0.85 ))
  (( 0.0 1.0 )
  ( 0.1 0.9 )))
  ((( 0.0 1.0 )
  ( 0.25 0.75 ))
  (( 0.0 1.0 )
  ( 0.5 0.5 )))))
  ((((( 0.0 1.0 )
  ( 0.5 0.5 ))
  (( 0.0 1.0 )
  ( 0.2 0.8 )))
  ((( 0.0 1.0 )
  ( 0.75 0.25 ))
  (( 0.0 1.0 )
  ( 0.4 0.6 ))))
  (((( 0.0 1.0 )
  ( 0.5 0.5 ))
  (( 0.0 1.0 )
  ( 0.2 0.8 )))
  ((( 0.0 1.0 )
  ( 0.75 0.25 ))
  (( 0.0 1.0 )
  ( 0.4 0.6 ))))
  (((( 0.0 1.0 )
  ( 0.15 0.85 ))
  (( 0.0 1.0 )
  ( 0.1 0.9 )))
  ((( 0.0 1.0 )
  ( 0.25 0.75 ))
  (( 0.0 1.0 )
  ( 0.5 0.5 ))))
  (((( 0.0 1.0 )
  ( 0.15 0.85 ))
  (( 0.0 1.0 )
  ( 0.1 0.9 )))
  ((( 0.0 1.0 )
  ( 0.25 0.75 ))
  (( 0.0 1.0 )
  ( 0.5 0.5 ))))
  (((( 0.0 1.0 )
  ( 0.15 0.85 ))
  (( 0.0 1.0 )
  ( 0.1 0.9 )))
  ((( 0.0 1.0 )
  ( 0.25 0.75 ))
  (( 0.0 1.0 )
  ( 0.5 0.5 )))))
  ((((( 0.0 1.0 )
  ( 0.5 0.5 ))
  (( 0.0 1.0 )
  ( 0.2 0.8 )))
  ((( 0.0 1.0 )
  ( 0.75 0.25 ))
  (( 0.0 1.0 )
  ( 0.4 0.6 ))))
  (((( 0.0 1.0 )
  ( 0.5 0.5 ))
  (( 0.0 1.0 )
  ( 0.2 0.8 )))
  ((( 0.0 1.0 )
  ( 0.75 0.25 ))
  (( 0.0 1.0 )
  ( 0.4 0.6 ))))
  (((( 0.0 1.0 )
  ( 0.15 0.85 ))
  (( 0.0 1.0 )
  ( 0.1 0.9 )))
  ((( 0.0 1.0 )
  ( 0.25 0.75 ))
  (( 0.0 1.0 )
  ( 0.5 0.5 ))))
  (((( 0.0 1.0 )
  ( 0.15 0.85 ))
  (( 0.0 1.0 )
  ( 0.1 0.9 )))
  ((( 0.0 1.0 )
  ( 0.25 0.75 ))
  (( 0.0 1.0 )
  ( 0.5 0.5 ))))
  (((( 0.0 1.0 )
  ( 0.15 0.85 ))
  (( 0.0 1.0 )
  ( 0.1 0.9 )))
  ((( 0.0 1.0 )
  ( 0.25 0.75 ))
  (( 0.0 1.0 )
  ( 0.5 0.5 )))))
  ((((( 0.0 1.0 )
  ( 0.5 0.5 ))
  (( 0.0 1.0 )
  ( 0.2 0.8 )))
  ((( 0.0 1.0 )
  ( 0.75 0.25 ))
  (( 0.0 1.0 )
  ( 0.4 0.6 ))))
  (((( 0.0 1.0 )
  ( 0.5 0.5 ))
  (( 0.0 1.0 )
  ( 0.2 0.8 )))
  ((( 0.0 1.0 )
  ( 0.75 0.25 ))
  (( 0.0 1.0 )
  ( 0.4 0.6 ))))
  (((( 0.0 1.0 )
  ( 0.15 0.85 ))
  (( 0.0 1.0 )
  ( 0.1 0.9 )))
  ((( 0.0 1.0 )
  ( 0.25 0.75 ))
  (( 0.0 1.0 )
  ( 0.5 0.5 ))))
  (((( 0.0 1.0 )
  ( 0.15 0.85 ))
  (( 0.0 1.0 )
  ( 0.1 0.9 )))
  ((( 0.0 1.0 )
  ( 0.25 0.75 ))
  (( 0.0 1.0 )
  ( 0.5 0.5 ))))
  (((( 0.0 1.0 )
  ( 0.15 0.85 ))
  (( 0.0 1.0 )
  ( 0.1 0.9 )))
  ((( 0.0 1.0 )
  ( 0.25 0.75 ))
  (( 0.0 1.0 )
  ( 0.5 0.5 )))))
  ((((( 0.0 1.0 )
  ( 0.5 0.5 ))
  (( 0.0 1.0 )
  ( 0.2 0.8 )))
  ((( 0.0 1.0 )
  ( 0.75 0.25 ))
  (( 0.0 1.0 )
  ( 0.4 0.6 ))))
  (((( 0.0 1.0 )
  ( 0.5 0.5 ))
  (( 0.0 1.0 )
  ( 0.2 0.8 )))
  ((( 0.0 1.0 )
  ( 0.75 0.25 ))
  (( 0.0 1.0 )
  ( 0.4 0.6 ))))
  (((( 0.0 1.0 )
  ( 0.15 0.85 ))
  (( 0.0 1.0 )
  ( 0.1 0.9 )))
  ((( 0.0 1.0 )
  ( 0.25 0.75 ))
  (( 0.0 1.0 )
  ( 0.5 0.5 ))))
  (((( 0.0 1.0 )
  ( 0.15 0.85 ))
  (( 0.0 1.0 )
  ( 0.1 0.9 )))
  ((( 0.0 1.0 )
  ( 0.25 0.75 ))
  (( 0.0 1.0 )
  ( 0.5 0.5 ))))
  (((( 0.0 1.0 )
  ( 0.15 0.85 ))
  (( 0.0 1.0 )
  ( 0.1 0.9 )))
  ((( 0.0 1.0 )
  ( 0.25 0.75 ))
  (( 0.0 1.0 )
  ( 0.5 0.5 ))))))
  (((((( 0.0 1.0 )
  ( 0.0 1.0 ))
  (( 0.0 1.0 )
  ( 0.0 1.0 )))
  ((( 0.0 1.0 )
  ( 0.0 1.0 ))
  (( 0.0 1.0 )
  ( 0.0 1.0 ))))
  (((( 0.0 1.0 )
  ( 0.0 1.0 ))
  (( 0.0 1.0 )
  ( 0.0 1.0 )))
  ((( 0.0 1.0 )
  ( 0.0 1.0 ))
  (( 0.0 1.0 )
  ( 0.0 1.0 ))))
  (((( 0.0 1.0 )
  ( 0.0 1.0 ))
  (( 0.0 1.0 )
  ( 0.0 1.0 )))
  ((( 0.0 1.0 )
  ( 0.0 1.0 ))
  (( 0.0 1.0 )
  ( 0.0 1.0 ))))
  (((( 0.0 1.0 )
  ( 0.0 1.0 ))
  (( 0.0 1.0 )
  ( 0.0 1.0 )))
  ((( 0.0 1.0 )
  ( 0.0 1.0 ))
  (( 0.0 1.0 )
  ( 0.0 1.0 ))))
  (((( 0.0 1.0 )
  ( 0.0 1.0 ))
  (( 0.0 1.0 )
  ( 0.0 1.0 )))
  ((( 0.0 1.0 )
  ( 0.0 1.0 ))
  (( 0.0 1.0 )
  ( 0.0 1.0 )))))
  ((((( 0.0 1.0 )
  ( 0.0 1.0 ))
  (( 0.0 1.0 )
  ( 0.0 1.0 )))
  ((( 0.0 1.0 )
  ( 0.0 1.0 ))
  (( 0.0 1.0 )
  ( 0.0 1.0 ))))
  (((( 0.0 1.0 )
  ( 0.0 1.0 ))
  (( 0.0 1.0 )
  ( 0.0 1.0 )))
  ((( 0.0 1.0 )
  ( 0.0 1.0 ))
  (( 0.0 1.0 )
  ( 0.0 1.0 ))))
  (((( 0.0 1.0 )
  ( 0.0 1.0 ))
  (( 0.0 1.0 )
  ( 0.0 1.0 )))
  ((( 0.0 1.0 )
  ( 0.0 1.0 ))
  (( 0.0 1.0 )
  ( 0.0 1.0 ))))
  (((( 0.0 1.0 )
  ( 0.0 1.0 ))
  (( 0.0 1.0 )
  ( 0.0 1.0 )))
  ((( 0.0 1.0 )
  ( 0.0 1.0 ))
  (( 0.0 1.0 )
  ( 0.0 1.0 ))))
  (((( 0.0 1.0 )
  ( 0.0 1.0 ))
  (( 0.0 1.0 )
  ( 0.0 1.0 )))
  ((( 0.0 1.0 )
  ( 0.0 1.0 ))
  (( 0.0 1.0 )
  ( 0.0 1.0 )))))
  ((((( 0.0 1.0 )
  ( 0.0 1.0 ))
  (( 0.0 1.0 )
  ( 0.0 1.0 )))
  ((( 0.0 1.0 )
  ( 0.0 1.0 ))
  (( 0.0 1.0 )
  ( 0.0 1.0 ))))
  (((( 0.0 1.0 )
  ( 0.0 1.0 ))
  (( 0.0 1.0 )
  ( 0.0 1.0 )))
  ((( 0.0 1.0 )
  ( 0.0 1.0 ))
  (( 0.0 1.0 )
  ( 0.0 1.0 ))))
  (((( 0.0 1.0 )
  ( 0.0 1.0 ))
  (( 0.0 1.0 )
  ( 0.0 1.0 )))
  ((( 0.0 1.0 )
  ( 0.0 1.0 ))
  (( 0.0 1.0 )
  ( 0.0 1.0 ))))
  (((( 0.0 1.0 )
  ( 0.0 1.0 ))
  (( 0.0 1.0 )
  ( 0.0 1.0 )))
  ((( 0.0 1.0 )
  ( 0.0 1.0 ))
  (( 0.0 1.0 )
  ( 0.0 1.0 ))))
  (((( 0.0 1.0 )
  ( 0.0 1.0 ))
  (( 0.0 1.0 )
  ( 0.0 1.0 )))
  ((( 0.0 1.0 )
  ( 0.0 1.0 ))
  (( 0.0 1.0 )
  ( 0.0 1.0 )))))
  ((((( 0.0 1.0 )
  ( 0.0 1.0 ))
  (( 0.0 1.0 )
  ( 0.0 1.0 )))
  ((( 0.0 1.0 )
  ( 0.0 1.0 ))
  (( 0.0 1.0 )
  ( 0.0 1.0 ))))
  (((( 0.0 1.0 )
  ( 0.0 1.0 ))
  (( 0.0 1.0 )
  ( 0.0 1.0 )))
  ((( 0.0 1.0 )
  ( 0.0 1.0 ))
  (( 0.0 1.0 )
  ( 0.0 1.0 ))))
  (((( 0.0 1.0 )
  ( 0.0 1.0 ))
  (( 0.0 1.0 )
  ( 0.0 1.0 )))
  ((( 0.0 1.0 )
  ( 0.0 1.0 ))
  (( 0.0 1.0 )
  ( 0.0 1.0 ))))
  (((( 0.0 1.0 )
  ( 0.0 1.0 ))
  (( 0.0 1.0 )
  ( 0.0 1.0 )))
  ((( 0.0 1.0 )
  ( 0.0 1.0 ))
  (( 0.0 1.0 )
  ( 0.0 1.0 ))))
  (((( 0.0 1.0 )
  ( 0.0 1.0 ))
  (( 0.0 1.0 )
  ( 0.0 1.0 )))
  ((( 0.0 1.0 )
  ( 0.0 1.0 ))
  (( 0.0 1.0 )
  ( 0.0 1.0 )))))
  ((((( 0.0 1.0 )
  ( 0.0 1.0 ))
  (( 0.0 1.0 )
  ( 0.0 1.0 )))
  ((( 0.0 1.0 )
  ( 0.0 1.0 ))
  (( 0.0 1.0 )
  ( 0.0 1.0 ))))
  (((( 0.0 1.0 )
  ( 0.0 1.0 ))
  (( 0.0 1.0 )
  ( 0.0 1.0 )))
  ((( 0.0 1.0 )
  ( 0.0 1.0 ))
  (( 0.0 1.0 )
  ( 0.0 1.0 ))))
  (((( 0.0 1.0 )
  ( 0.0 1.0 ))
  (( 0.0 1.0 )
  ( 0.0 1.0 )))
  ((( 0.0 1.0 )
  ( 0.0 1.0 ))
  (( 0.0 1.0 )
  ( 0.0 1.0 ))))
  (((( 0.0 1.0 )
  ( 0.0 1.0 ))
  (( 0.0 1.0 )
  ( 0.0 1.0 )))
  ((( 0.0 1.0 )
  ( 0.0 1.0 ))
  (( 0.0 1.0 )
  ( 0.0 1.0 ))))
  (((( 0.0 1.0 )
  ( 0.0 1.0 ))
  (( 0.0 1.0 )
  ( 0.0 1.0 )))
  ((( 0.0 1.0 )
  ( 0.0 1.0 ))
  (( 0.0 1.0 )
  ( 0.0 1.0 )))))
  ((((( 0.0 1.0 )
  ( 0.0 1.0 ))
  (( 0.0 1.0 )
  ( 0.0 1.0 )))
  ((( 0.0 1.0 )
  ( 0.0 1.0 ))
  (( 0.0 1.0 )
  ( 0.0 1.0 ))))
  (((( 0.0 1.0 )
  ( 0.0 1.0 ))
  (( 0.0 1.0 )
  ( 0.0 1.0 )))
  ((( 0.0 1.0 )
  ( 0.0 1.0 ))
  (( 0.0 1.0 )
  ( 0.0 1.0 ))))
  (((( 0.0 1.0 )
  ( 0.0 1.0 ))
  (( 0.0 1.0 )
  ( 0.0 1.0 )))
  ((( 0.0 1.0 )
  ( 0.0 1.0 ))
  (( 0.0 1.0 )
  ( 0.0 1.0 ))))
  (((( 0.0 1.0 )
  ( 0.0 1.0 ))
  (( 0.0 1.0 )
  ( 0.0 1.0 )))
  ((( 0.0 1.0 )
  ( 0.0 1.0 ))
  (( 0.0 1.0 )
  ( 0.0 1.0 ))))
  (((( 0.0 1.0 )
  ( 0.0 1.0 ))
  (( 0.0 1.0 )
  ( 0.0 1.0 )))
  ((( 0.0 1.0 )
  ( 0.0 1.0 ))
  (( 0.0 1.0 )
  ( 0.0 1.0 )))))
  ((((( 0.0 1.0 )
  ( 0.0 1.0 ))
  (( 0.0 1.0 )
  ( 0.0 1.0 )))
  ((( 0.0 1.0 )
  ( 0.0 1.0 ))
  (( 0.0 1.0 )
  ( 0.0 1.0 ))))
  (((( 0.0 1.0 )
  ( 0.0 1.0 ))
  (( 0.0 1.0 )
  ( 0.0 1.0 )))
  ((( 0.0 1.0 )
  ( 0.0 1.0 ))
  (( 0.0 1.0 )
  ( 0.0 1.0 ))))
  (((( 0.0 1.0 )
  ( 0.0 1.0 ))
  (( 0.0 1.0 )
  ( 0.0 1.0 )))
  ((( 0.0 1.0 )
  ( 0.0 1.0 ))
  (( 0.0 1.0 )
  ( 0.0 1.0 ))))
  (((( 0.0 1.0 )
  ( 0.0 1.0 ))
  (( 0.0 1.0 )
  ( 0.0 1.0 )))
  ((( 0.0 1.0 )
  ( 0.0 1.0 ))
  (( 0.0 1.0 )
  ( 0.0 1.0 ))))
  (((( 0.0 1.0 )
  ( 0.0 1.0 ))
  (( 0.0 1.0 )
  ( 0.0 1.0 )))
  ((( 0.0 1.0 )
  ( 0.0 1.0 ))
  (( 0.0 1.0 )
  ( 0.0 1.0 )))))
  ((((( 0.0 1.0 )
  ( 0.0 1.0 ))
  (( 0.0 1.0 )
  ( 0.0 1.0 )))
  ((( 0.0 1.0 )
  ( 0.0 1.0 ))
  (( 0.0 1.0 )
  ( 0.0 1.0 ))))
  (((( 0.0 1.0 )
  ( 0.0 1.0 ))
  (( 0.0 1.0 )
  ( 0.0 1.0 )))
  ((( 0.0 1.0 )
  ( 0.0 1.0 ))
  (( 0.0 1.0 )
  ( 0.0 1.0 ))))
  (((( 0.0 1.0 )
  ( 0.0 1.0 ))
  (( 0.0 1.0 )
  ( 0.0 1.0 )))
  ((( 0.0 1.0 )
  ( 0.0 1.0 ))
  (( 0.0 1.0 )
  ( 0.0 1.0 ))))
  (((( 0.0 1.0 )
  ( 0.0 1.0 ))
  (( 0.0 1.0 )
  ( 0.0 1.0 )))
  ((( 0.0 1.0 )
  ( 0.0 1.0 ))
  (( 0.0 1.0 )
  ( 0.0 1.0 ))))
  (((( 0.0 1.0 )
  ( 0.0 1.0 ))
  (( 0.0 1.0 )
  ( 0.0 1.0 )))
  ((( 0.0 1.0 )
  ( 0.0 1.0 ))
  (( 0.0 1.0 )
  ( 0.0 1.0 )))))
  ((((( 0.0 1.0 )
  ( 0.0 1.0 ))
  (( 0.0 1.0 )
  ( 0.0 1.0 )))
  ((( 0.0 1.0 )
  ( 0.0 1.0 ))
  (( 0.0 1.0 )
  ( 0.0 1.0 ))))
  (((( 0.0 1.0 )
  ( 0.0 1.0 ))
  (( 0.0 1.0 )
  ( 0.0 1.0 )))
  ((( 0.0 1.0 )
  ( 0.0 1.0 ))
  (( 0.0 1.0 )
  ( 0.0 1.0 ))))
  (((( 0.0 1.0 )
  ( 0.0 1.0 ))
  (( 0.0 1.0 )
  ( 0.0 1.0 )))
  ((( 0.0 1.0 )
  ( 0.0 1.0 ))
  (( 0.0 1.0 )
  ( 0.0 1.0 ))))
  (((( 0.0 1.0 )
  ( 0.0 1.0 ))
  (( 0.0 1.0 )
  ( 0.0 1.0 )))
  ((( 0.0 1.0 )
  ( 0.0 1.0 ))
  (( 0.0 1.0 )
  ( 0.0 1.0 ))))
  (((( 0.0 1.0 )
  ( 0.0 1.0 ))
  (( 0.0 1.0 )
  ( 0.0 1.0 )))
  ((( 0.0 1.0 )
  ( 0.0 1.0 ))
  (( 0.0 1.0 )
  ( 0.0 1.0 )))))
  ((((( 0.0 1.0 )
  ( 0.0 1.0 ))
  (( 0.0 1.0 )
  ( 0.0 1.0 )))
  ((( 0.0 1.0 )
  ( 0.0 1.0 ))
  (( 0.0 1.0 )
  ( 0.0 1.0 ))))
  (((( 0.0 1.0 )
  ( 0.0 1.0 ))
  (( 0.0 1.0 )
  ( 0.0 1.0 )))
  ((( 0.0 1.0 )
  ( 0.0 1.0 ))
  (( 0.0 1.0 )
  ( 0.0 1.0 ))))
  (((( 0.0 1.0 )
  ( 0.0 1.0 ))
  (( 0.0 1.0 )
  ( 0.0 1.0 )))
  ((( 0.0 1.0 )
  ( 0.0 1.0 ))
  (( 0.0 1.0 )
  ( 0.0 1.0 ))))
  (((( 0.0 1.0 )
  ( 0.0 1.0 ))
  (( 0.0 1.0 )
  ( 0.0 1.0 )))
  ((( 0.0 1.0 )
  ( 0.0 1.0 ))
  (( 0.0 1.0 )
  ( 0.0 1.0 ))))
  (((( 0.0 1.0 )
  ( 0.0 1.0 ))
  (( 0.0 1.0 )
  ( 0.0 1.0 )))
  ((( 0.0 1.0 )
  ( 0.0 1.0 ))
  (( 0.0 1.0 )
  ( 0.0 1.0 )))))
  ((((( 0.0 1.0 )
  ( 0.0 1.0 ))
  (( 0.0 1.0 )
  ( 0.0 1.0 )))
  ((( 0.0 1.0 )
  ( 0.0 1.0 ))
  (( 0.0 1.0 )
  ( 0.0 1.0 ))))
  (((( 0.0 1.0 )
  ( 0.0 1.0 ))
  (( 0.0 1.0 )
  ( 0.0 1.0 )))
  ((( 0.0 1.0 )
  ( 0.0 1.0 ))
  (( 0.0 1.0 )
  ( 0.0 1.0 ))))
  (((( 0.0 1.0 )
  ( 0.0 1.0 ))
  (( 0.0 1.0 )
  ( 0.0 1.0 )))
  ((( 0.0 1.0 )
  ( 0.0 1.0 ))
  (( 0.0 1.0 )
  ( 0.0 1.0 ))))
  (((( 0.0 1.0 )
  ( 0.0 1.0 ))
  (( 0.0 1.0 )
  ( 0.0 1.0 )))
  ((( 0.0 1.0 )
  ( 0.0 1.0 ))
  (( 0.0 1.0 )
  ( 0.0 1.0 ))))
  (((( 0.0 1.0 )
  ( 0.0 1.0 ))
  (( 0.0 1.0 )
  ( 0.0 1.0 )))
  ((( 0.0 1.0 )
  ( 0.0 1.0 ))
  (( 0.0 1.0 )
  ( 0.0 1.0 )))))
  ((((( 0.0 1.0 )
  ( 0.0 1.0 ))
  (( 0.0 1.0 )
  ( 0.0 1.0 )))
  ((( 0.0 1.0 )
  ( 0.0 1.0 ))
  (( 0.0 1.0 )
  ( 0.0 1.0 ))))
  (((( 0.0 1.0 )
  ( 0.0 1.0 ))
  (( 0.0 1.0 )
  ( 0.0 1.0 )))
  ((( 0.0 1.0 )
  ( 0.0 1.0 ))
  (( 0.0 1.0 )
  ( 0.0 1.0 ))))
  (((( 0.0 1.0 )
  ( 0.0 1.0 ))
  (( 0.0 1.0 )
  ( 0.0 1.0 )))
  ((( 0.0 1.0 )
  ( 0.0 1.0 ))
  (( 0.0 1.0 )
  ( 0.0 1.0 ))))
  (((( 0.0 1.0 )
  ( 0.0 1.0 ))
  (( 0.0 1.0 )
  ( 0.0 1.0 )))
  ((( 0.0 1.0 )
  ( 0.0 1.0 ))
  (( 0.0 1.0 )
  ( 0.0 1.0 ))))
  (((( 0.0 1.0 )
  ( 0.0 1.0 ))
  (( 0.0 1.0 )
  ( 0.0 1.0 )))
  ((( 0.0 1.0 )
  ( 0.0 1.0 ))
  (( 0.0 1.0 )
  ( 0.0 1.0 ))))))
  (((((( 0.0 1.0 )
  ( 0.0 1.0 ))
  (( 0.0 1.0 )
  ( 0.0 1.0 )))
  ((( 0.0 1.0 )
  ( 0.0 1.0 ))
  (( 0.0 1.0 )
  ( 0.0 1.0 ))))
  (((( 0.0 1.0 )
  ( 0.0 1.0 ))
  (( 0.0 1.0 )
  ( 0.0 1.0 )))
  ((( 0.0 1.0 )
  ( 0.0 1.0 ))
  (( 0.0 1.0 )
  ( 0.0 1.0 ))))
  (((( 0.0 1.0 )
  ( 0.0 1.0 ))
  (( 0.0 1.0 )
  ( 0.0 1.0 )))
  ((( 0.0 1.0 )
  ( 0.0 1.0 ))
  (( 0.0 1.0 )
  ( 0.0 1.0 ))))
  (((( 0.0 1.0 )
  ( 0.0 1.0 ))
  (( 0.0 1.0 )
  ( 0.0 1.0 )))
  ((( 0.0 1.0 )
  ( 0.0 1.0 ))
  (( 0.0 1.0 )
  ( 0.0 1.0 ))))
  (((( 0.0 1.0 )
  ( 0.0 1.0 ))
  (( 0.0 1.0 )
  ( 0.0 1.0 )))
  ((( 0.0 1.0 )
  ( 0.0 1.0 ))
  (( 0.0 1.0 )
  ( 0.0 1.0 )))))
  ((((( 0.0 1.0 )
  ( 0.0 1.0 ))
  (( 0.0 1.0 )
  ( 0.0 1.0 )))
  ((( 0.0 1.0 )
  ( 0.0 1.0 ))
  (( 0.0 1.0 )
  ( 0.0 1.0 ))))
  (((( 0.0 1.0 )
  ( 0.0 1.0 ))
  (( 0.0 1.0 )
  ( 0.0 1.0 )))
  ((( 0.0 1.0 )
  ( 0.0 1.0 ))
  (( 0.0 1.0 )
  ( 0.0 1.0 ))))
  (((( 0.0 1.0 )
  ( 0.0 1.0 ))
  (( 0.0 1.0 )
  ( 0.0 1.0 )))
  ((( 0.0 1.0 )
  ( 0.0 1.0 ))
  (( 0.0 1.0 )
  ( 0.0 1.0 ))))
  (((( 0.0 1.0 )
  ( 0.0 1.0 ))
  (( 0.0 1.0 )
  ( 0.0 1.0 )))
  ((( 0.0 1.0 )
  ( 0.0 1.0 ))
  (( 0.0 1.0 )
  ( 0.0 1.0 ))))
  (((( 0.0 1.0 )
  ( 0.0 1.0 ))
  (( 0.0 1.0 )
  ( 0.0 1.0 )))
  ((( 0.0 1.0 )
  ( 0.0 1.0 ))
  (( 0.0 1.0 )
  ( 0.0 1.0 )))))
  ((((( 0.0 1.0 )
  ( 0.0 1.0 ))
  (( 0.0 1.0 )
  ( 0.0 1.0 )))
  ((( 0.0 1.0 )
  ( 0.0 1.0 ))
  (( 0.0 1.0 )
  ( 0.0 1.0 ))))
  (((( 0.0 1.0 )
  ( 0.0 1.0 ))
  (( 0.0 1.0 )
  ( 0.0 1.0 )))
  ((( 0.0 1.0 )
  ( 0.0 1.0 ))
  (( 0.0 1.0 )
  ( 0.0 1.0 ))))
  (((( 0.0 1.0 )
  ( 0.0 1.0 ))
  (( 0.0 1.0 )
  ( 0.0 1.0 )))
  ((( 0.0 1.0 )
  ( 0.0 1.0 ))
  (( 0.0 1.0 )
  ( 0.0 1.0 ))))
  (((( 0.0 1.0 )
  ( 0.0 1.0 ))
  (( 0.0 1.0 )
  ( 0.0 1.0 )))
  ((( 0.0 1.0 )
  ( 0.0 1.0 ))
  (( 0.0 1.0 )
  ( 0.0 1.0 ))))
  (((( 0.0 1.0 )
  ( 0.0 1.0 ))
  (( 0.0 1.0 )
  ( 0.0 1.0 )))
  ((( 0.0 1.0 )
  ( 0.0 1.0 ))
  (( 0.0 1.0 )
  ( 0.0 1.0 )))))
  ((((( 0.0 1.0 )
  ( 0.0 1.0 ))
  (( 0.0 1.0 )
  ( 0.0 1.0 )))
  ((( 0.0 1.0 )
  ( 0.0 1.0 ))
  (( 0.0 1.0 )
  ( 0.0 1.0 ))))
  (((( 0.0 1.0 )
  ( 0.0 1.0 ))
  (( 0.0 1.0 )
  ( 0.0 1.0 )))
  ((( 0.0 1.0 )
  ( 0.0 1.0 ))
  (( 0.0 1.0 )
  ( 0.0 1.0 ))))
  (((( 0.0 1.0 )
  ( 0.0 1.0 ))
  (( 0.0 1.0 )
  ( 0.0 1.0 )))
  ((( 0.0 1.0 )
  ( 0.0 1.0 ))
  (( 0.0 1.0 )
  ( 0.0 1.0 ))))
  (((( 0.0 1.0 )
  ( 0.0 1.0 ))
  (( 0.0 1.0 )
  ( 0.0 1.0 )))
  ((( 0.0 1.0 )
  ( 0.0 1.0 ))
  (( 0.0 1.0 )
  ( 0.0 1.0 ))))
  (((( 0.0 1.0 )
  ( 0.0 1.0 ))
  (( 0.0 1.0 )
  ( 0.0 1.0 )))
  ((( 0.0 1.0 )
  ( 0.0 1.0 ))
  (( 0.0 1.0 )
  ( 0.0 1.0 )))))
  ((((( 0.0 1.0 )
  ( 0.0 1.0 ))
  (( 0.0 1.0 )
  ( 0.0 1.0 )))
  ((( 0.0 1.0 )
  ( 0.0 1.0 ))
  (( 0.0 1.0 )
  ( 0.0 1.0 ))))
  (((( 0.0 1.0 )
  ( 0.0 1.0 ))
  (( 0.0 1.0 )
  ( 0.0 1.0 )))
  ((( 0.0 1.0 )
  ( 0.0 1.0 ))
  (( 0.0 1.0 )
  ( 0.0 1.0 ))))
  (((( 0.0 1.0 )
  ( 0.0 1.0 ))
  (( 0.0 1.0 )
  ( 0.0 1.0 )))
  ((( 0.0 1.0 )
  ( 0.0 1.0 ))
  (( 0.0 1.0 )
  ( 0.0 1.0 ))))
  (((( 0.0 1.0 )
  ( 0.0 1.0 ))
  (( 0.0 1.0 )
  ( 0.0 1.0 )))
  ((( 0.0 1.0 )
  ( 0.0 1.0 ))
  (( 0.0 1.0 )
  ( 0.0 1.0 ))))
  (((( 0.0 1.0 )
  ( 0.0 1.0 ))
  (( 0.0 1.0 )
  ( 0.0 1.0 )))
  ((( 0.0 1.0 )
  ( 0.0 1.0 ))
  (( 0.0 1.0 )
  ( 0.0 1.0 )))))
  ((((( 0.0 1.0 )
  ( 0.0 1.0 ))
  (( 0.0 1.0 )
  ( 0.0 1.0 )))
  ((( 0.0 1.0 )
  ( 0.0 1.0 ))
  (( 0.0 1.0 )
  ( 0.0 1.0 ))))
  (((( 0.0 1.0 )
  ( 0.0 1.0 ))
  (( 0.0 1.0 )
  ( 0.0 1.0 )))
  ((( 0.0 1.0 )
  ( 0.0 1.0 ))
  (( 0.0 1.0 )
  ( 0.0 1.0 ))))
  (((( 0.0 1.0 )
  ( 0.0 1.0 ))
  (( 0.0 1.0 )
  ( 0.0 1.0 )))
  ((( 0.0 1.0 )
  ( 0.0 1.0 ))
  (( 0.0 1.0 )
  ( 0.0 1.0 ))))
  (((( 0.0 1.0 )
  ( 0.0 1.0 ))
  (( 0.0 1.0 )
  ( 0.0 1.0 )))
  ((( 0.0 1.0 )
  ( 0.0 1.0 ))
  (( 0.0 1.0 )
  ( 0.0 1.0 ))))
  (((( 0.0 1.0 )
  ( 0.0 1.0 ))
  (( 0.0 1.0 )
  ( 0.0 1.0 )))
  ((( 0.0 1.0 )
  ( 0.0 1.0 ))
  (( 0.0 1.0 )
  ( 0.0 1.0 )))))
  ((((( 0.0 1.0 )
  ( 0.0 1.0 ))
  (( 0.0 1.0 )
  ( 0.0 1.0 )))
  ((( 0.0 1.0 )
  ( 0.0 1.0 ))
  (( 0.0 1.0 )
  ( 0.0 1.0 ))))
  (((( 0.0 1.0 )
  ( 0.0 1.0 ))
  (( 0.0 1.0 )
  ( 0.0 1.0 )))
  ((( 0.0 1.0 )
  ( 0.0 1.0 ))
  (( 0.0 1.0 )
  ( 0.0 1.0 ))))
  (((( 0.0 1.0 )
  ( 0.0 1.0 ))
  (( 0.0 1.0 )
  ( 0.0 1.0 )))
  ((( 0.0 1.0 )
  ( 0.0 1.0 ))
  (( 0.0 1.0 )
  ( 0.0 1.0 ))))
  (((( 0.0 1.0 )
  ( 0.0 1.0 ))
  (( 0.0 1.0 )
  ( 0.0 1.0 )))
  ((( 0.0 1.0 )
  ( 0.0 1.0 ))
  (( 0.0 1.0 )
  ( 0.0 1.0 ))))
  (((( 0.0 1.0 )
  ( 0.0 1.0 ))
  (( 0.0 1.0 )
  ( 0.0 1.0 )))
  ((( 0.0 1.0 )
  ( 0.0 1.0 ))
  (( 0.0 1.0 )
  ( 0.0 1.0 )))))
  ((((( 0.0 1.0 )
  ( 0.0 1.0 ))
  (( 0.0 1.0 )
  ( 0.0 1.0 )))
  ((( 0.0 1.0 )
  ( 0.0 1.0 ))
  (( 0.0 1.0 )
  ( 0.0 1.0 ))))
  (((( 0.0 1.0 )
  ( 0.0 1.0 ))
  (( 0.0 1.0 )
  ( 0.0 1.0 )))
  ((( 0.0 1.0 )
  ( 0.0 1.0 ))
  (( 0.0 1.0 )
  ( 0.0 1.0 ))))
  (((( 0.0 1.0 )
  ( 0.0 1.0 ))
  (( 0.0 1.0 )
  ( 0.0 1.0 )))
  ((( 0.0 1.0 )
  ( 0.0 1.0 ))
  (( 0.0 1.0 )
  ( 0.0 1.0 ))))
  (((( 0.0 1.0 )
  ( 0.0 1.0 ))
  (( 0.0 1.0 )
  ( 0.0 1.0 )))
  ((( 0.0 1.0 )
  ( 0.0 1.0 ))
  (( 0.0 1.0 )
  ( 0.0 1.0 ))))
  (((( 0.0 1.0 )
  ( 0.0 1.0 ))
  (( 0.0 1.0 )
  ( 0.0 1.0 )))
  ((( 0.0 1.0 )
  ( 0.0 1.0 ))
  (( 0.0 1.0 )
  ( 0.0 1.0 )))))
  ((((( 0.0 1.0 )
  ( 0.0 1.0 ))
  (( 0.0 1.0 )
  ( 0.0 1.0 )))
  ((( 0.0 1.0 )
  ( 0.0 1.0 ))
  (( 0.0 1.0 )
  ( 0.0 1.0 ))))
  (((( 0.0 1.0 )
  ( 0.0 1.0 ))
  (( 0.0 1.0 )
  ( 0.0 1.0 )))
  ((( 0.0 1.0 )
  ( 0.0 1.0 ))
  (( 0.0 1.0 )
  ( 0.0 1.0 ))))
  (((( 0.0 1.0 )
  ( 0.0 1.0 ))
  (( 0.0 1.0 )
  ( 0.0 1.0 )))
  ((( 0.0 1.0 )
  ( 0.0 1.0 ))
  (( 0.0 1.0 )
  ( 0.0 1.0 ))))
  (((( 0.0 1.0 )
  ( 0.0 1.0 ))
  (( 0.0 1.0 )
  ( 0.0 1.0 )))
  ((( 0.0 1.0 )
  ( 0.0 1.0 ))
  (( 0.0 1.0 )
  ( 0.0 1.0 ))))
  (((( 0.0 1.0 )
  ( 0.0 1.0 ))
  (( 0.0 1.0 )
  ( 0.0 1.0 )))
  ((( 0.0 1.0 )
  ( 0.0 1.0 ))
  (( 0.0 1.0 )
  ( 0.0 1.0 )))))
  ((((( 0.0 1.0 )
  ( 0.0 1.0 ))
  (( 0.0 1.0 )
  ( 0.0 1.0 )))
  ((( 0.0 1.0 )
  ( 0.0 1.0 ))
  (( 0.0 1.0 )
  ( 0.0 1.0 ))))
  (((( 0.0 1.0 )
  ( 0.0 1.0 ))
  (( 0.0 1.0 )
  ( 0.0 1.0 )))
  ((( 0.0 1.0 )
  ( 0.0 1.0 ))
  (( 0.0 1.0 )
  ( 0.0 1.0 ))))
  (((( 0.0 1.0 )
  ( 0.0 1.0 ))
  (( 0.0 1.0 )
  ( 0.0 1.0 )))
  ((( 0.0 1.0 )
  ( 0.0 1.0 ))
  (( 0.0 1.0 )
  ( 0.0 1.0 ))))
  (((( 0.0 1.0 )
  ( 0.0 1.0 ))
  (( 0.0 1.0 )
  ( 0.0 1.0 )))
  ((( 0.0 1.0 )
  ( 0.0 1.0 ))
  (( 0.0 1.0 )
  ( 0.0 1.0 ))))
  (((( 0.0 1.0 )
  ( 0.0 1.0 ))
  (( 0.0 1.0 )
  ( 0.0 1.0 )))
  ((( 0.0 1.0 )
  ( 0.0 1.0 ))
  (( 0.0 1.0 )
  ( 0.0 1.0 )))))
  ((((( 0.0 1.0 )
  ( 0.0 1.0 ))
  (( 0.0 1.0 )
  ( 0.0 1.0 )))
  ((( 0.0 1.0 )
  ( 0.0 1.0 ))
  (( 0.0 1.0 )
  ( 0.0 1.0 ))))
  (((( 0.0 1.0 )
  ( 0.0 1.0 ))
  (( 0.0 1.0 )
  ( 0.0 1.0 )))
  ((( 0.0 1.0 )
  ( 0.0 1.0 ))
  (( 0.0 1.0 )
  ( 0.0 1.0 ))))
  (((( 0.0 1.0 )
  ( 0.0 1.0 ))
  (( 0.0 1.0 )
  ( 0.0 1.0 )))
  ((( 0.0 1.0 )
  ( 0.0 1.0 ))
  (( 0.0 1.0 )
  ( 0.0 1.0 ))))
  (((( 0.0 1.0 )
  ( 0.0 1.0 ))
  (( 0.0 1.0 )
  ( 0.0 1.0 )))
  ((( 0.0 1.0 )
  ( 0.0 1.0 ))
  (( 0.0 1.0 )
  ( 0.0 1.0 ))))
  (((( 0.0 1.0 )
  ( 0.0 1.0 ))
  (( 0.0 1.0 )
  ( 0.0 1.0 )))
  ((( 0.0 1.0 )
  ( 0.0 1.0 ))
  (( 0.0 1.0 )
  ( 0.0 1.0 )))))
  ((((( 0.0 1.0 )
  ( 0.0 1.0 ))
  (( 0.0 1.0 )
  ( 0.0 1.0 )))
  ((( 0.0 1.0 )
  ( 0.0 1.0 ))
  (( 0.0 1.0 )
  ( 0.0 1.0 ))))
  (((( 0.0 1.0 )
  ( 0.0 1.0 ))
  (( 0.0 1.0 )
  ( 0.0 1.0 )))
  ((( 0.0 1.0 )
  ( 0.0 1.0 ))
  (( 0.0 1.0 )
  ( 0.0 1.0 ))))
  (((( 0.0 1.0 )
  ( 0.0 1.0 ))
  (( 0.0 1.0 )
  ( 0.0 1.0 )))
  ((( 0.0 1.0 )
  ( 0.0 1.0 ))
  (( 0.0 1.0 )
  ( 0.0 1.0 ))))
  (((( 0.0 1.0 )
  ( 0.0 1.0 ))
  (( 0.0 1.0 )
  ( 0.0 1.0 )))
  ((( 0.0 1.0 )
  ( 0.0 1.0 ))
  (( 0.0 1.0 )
  ( 0.0 1.0 ))))
  (((( 0.0 1.0 )
  ( 0.0 1.0 ))
  (( 0.0 1.0 )
  ( 0.0 1.0 )))
  ((( 0.0 1.0 )
  ( 0.0 1.0 ))
  (( 0.0 1.0 )
  ( 0.0 1.0 )))))));
}
potential ( HELICOBACTER_PYLORI | )
{
 data = ( 0.14999998299999967 0.8500000170000003 );
}
potential ( BM_DEPRESSION | CT_RT_SCHEDULE AGE )
{
 data = ((( 1.0 0.0 )
  ( 1.0 0.0 )
  ( 1.0 0.0 )
  ( 1.0 0.0 )
  ( 1.0 0.0 )
  ( 1.0 0.0 )
  ( 1.0 0.0 )
  ( 1.0 0.0 )
  ( 1.0 0.0 )
  ( 1.0 0.0 )
  ( 1.0 0.0 )
  ( 1.0 0.0 ))
  (( 0.95 0.05 )
  ( 0.9500000095000001 0.04999999049999991 )
  ( 0.9500000095000001 0.04999999049999991 )
  ( 0.9 0.1 )
  ( 0.9 0.1 )
  ( 0.85 0.15 )
  ( 0.8 0.2 )
  ( 0.8 0.2 )
  ( 0.6 0.4 )
  ( 0.4 0.6 )
  ( 0.35 0.65 )
  ( 0.3 0.7 ))
  (( 0.8999999820000003 0.10000001799999962 )
  ( 0.8999999820000003 0.10000001799999962 )
  ( 0.8999999820000003 0.10000001799999962 )
  ( 0.8 0.2 )
  ( 0.8 0.2 )
  ( 0.8 0.2 )
  ( 0.7 0.3 )
  ( 0.6 0.4 )
  ( 0.5 0.5 )
  ( 0.29999998500000075 0.7000000149999993 )
  ( 0.10000001799999962 0.8999999820000003 )
  ( 0.10000001799999962 0.8999999820000003 ))
  (( 0.8999999910000002 0.10000000899999992 )
  ( 0.9 0.1 )
  ( 0.8 0.2 )
  ( 0.7 0.3 )
  ( 0.7000000140000003 0.2999999859999998 )
  ( 0.6 0.4 )
  ( 0.5 0.5 )
  ( 0.4 0.6 )
  ( 0.2 0.8 )
  ( 0.1 0.9 )
  ( 0.05 0.95 )
  ( 0.05 0.95 )));
}
